{"learner":{"attributes":{"scikit_learn":"{\"use_label_encoder\": false, \"n_estimators\": 100, \"objective\": \"multi:softprob\", \"max_depth\": null, \"learning_rate\": null, \"verbosity\": null, \"booster\": null, \"tree_method\": null, \"gamma\": null, \"min_child_weight\": null, \"max_delta_step\": null, \"subsample\": null, \"colsample_bytree\": null, \"colsample_bylevel\": null, \"colsample_bynode\": null, \"reg_alpha\": null, \"reg_lambda\": null, \"scale_pos_weight\": null, \"base_score\": null, \"missing\": NaN, \"num_parallel_tree\": null, \"kwargs\": {\"eval_metric\": \"mlogloss\"}, \"random_state\": null, \"n_jobs\": null, \"monotone_constraints\": null, \"interaction_constraints\": null, \"importance_type\": \"gain\", \"gpu_id\": null, \"validate_parameters\": null, \"classes_\": [0, 1, 2], \"n_classes_\": 3, \"_features_count\": 7, \"n_features_in_\": 7, \"type\": \"XGBClassifier\"}"},"gradient_booster":{"model":{"gbtree_model_param":{"num_trees":"300","size_leaf_vector":"0"},"tree_info":[0,1,2,0,1,2,0,1,2,0,1,2,0,1,2,0,1,2,0,1,2,0,1,2,0,1,2,0,1,2,0,1,2,0,1,2,0,1,2,0,1,2,0,1,2,0,1,2,0,1,2,0,1,2,0,1,2,0,1,2,0,1,2,0,1,2,0,1,2,0,1,2,0,1,2,0,1,2,0,1,2,0,1,2,0,1,2,0,1,2,0,1,2,0,1,2,0,1,2,0,1,2,0,1,2,0,1,2,0,1,2,0,1,2,0,1,2,0,1,2,0,1,2,0,1,2,0,1,2,0,1,2,0,1,2,0,1,2,0,1,2,0,1,2,0,1,2,0,1,2,0,1,2,0,1,2,0,1,2,0,1,2,0,1,2,0,1,2,0,1,2,0,1,2,0,1,2,0,1,2,0,1,2,0,1,2,0,1,2,0,1,2,0,1,2,0,1,2,0,1,2,0,1,2,0,1,2,0,1,2,0,1,2,0,1,2,0,1,2,0,1,2,0,1,2,0,1,2,0,1,2,0,1,2,0,1,2,0,1,2,0,1,2,0,1,2,0,1,2,0,1,2,0,1,2,0,1,2,0,1,2,0,1,2,0,1,2,0,1,2,0,1,2,0,1,2,0,1,2,0,1,2,0,1,2,0,1,2,0,1,2,0,1,2,0,1,2,0,1,2],"trees":[{"base_weights":[-1.09337546E-1,-2.6677102E-1,8.990322E-2,-3.5027757E-1,-1.8376549E-1,5.754679E-3,3.2009134E-1,-3.6955482E-1,-1.9772102E-1,-7.621599E-2,-2.1160986E-1,-3.1411048E-2,4.9064923E-2,1.9118997E-1,3.819279E-1,-3.9651838E-1,-3.2198593E-1,4.5674738E-1,-2.1752463E-1,-8.2426E-2,3.991416E-1,-2.593652E-1,-1.3969131E-1,8.2300884E-1,-3.319215E-2,-1.1751729E-1,6.314606E-2,1.0909091E0,1.818412E-1,4.150325E-1,9.3421526E-2,4.1958E-2,-4.0031257E-1,-3.3696538E-1,-1.271821E-1,1.6363633E-1,7.8947365E-1,-2.505967E-1,-4.174955E-2,-1.0779072E-1,2.6905786E-2,-5.172414E-1,5.070422E-1,-2.7144784E-1,-4.1039716E-2,-3.447685E-1,-1.2580538E-1,9.677419E-1,1.0344825E-1,-2.1932618E-1,-2.7607933E-2,-1.3054398E-1,8.5714287E-1,4.2634558E-2,3.788748E-1,2.7746603E-1,9.789319E-2,4.2173693E-1,-2.7149326E-1,3.4412082E-2,1.1386861E0,-1.08033285E-1,7.402597E-1,4.8387095E-1,-4.0193197E-1,-2.4645084E-1,-3.6573064E-1,-2.363474E-1,1.0033401E-2,1.0408163E0,-1.9200005E-1,9.823009E-1,-2.0689659E-1,-2.827368E-1,-9.11787E-2,-5.4863816E-1,6.185563E-2,-8.232529E-2,-2.5804907E-1,6.1439957E-2,-4.454149E-1,-4.2857146E-1,5.8208954E-1,-2.549399E-1,-4.068869E-1,-1.08661465E-1,3.9393938E-1,5.9999996E-1,-3.677759E-1,-6.854253E-2,-1.555882E-1,-3.788879E-1,1.0940495E-1,-4.1799325E-2,3.215238E-2,-7.507936E-2,-3.3685607E-1,-2.5544848E-8,1.1351352E0,-3.307155E-3,8.777889E-2,1.1039996E-1,4.6119174E-1,-4.7151323E-2,3.0985072E-1,1.61194E-1,-1.4803398E-1,4.5084742E-1,2.659422E-1,1.0619465E-1,-6.153847E-1,-3.9963298E-2,6.263736E-1,1.248E0,-2.5544848E-8],"categories":[],"categories_nodes":[],"categories_segments":[],"categories_sizes":[],"default_left":[true,true,true,true,true,true,true,true,true,true,true,true,true,true,true,true,true,true,true,true,true,true,true,true,true,true,true,false,true,true,true,true,true,true,true,true,true,true,true,true,true,false,true,true,true,true,true,false,false,true,true,true,true,true,true,true,true,true,true,true,true,false,false,false,false,false,false,false,false,false,false,false,false,false,false,false,false,false,false,false,false,false,false,false,false,false,false,false,false,false,false,false,false,false,false,false,false,false,false,false,false,false,false,false,false,false,false,false,false,false,false,false,false,false,false],"id":0,"left_children":[1,3,5,7,9,11,13,15,17,19,21,23,25,27,29,31,33,35,37,39,41,43,45,47,49,51,53,-1,55,57,59,61,63,65,67,69,71,73,75,77,79,-1,81,83,85,87,89,-1,-1,91,93,95,97,99,101,103,105,107,109,111,113,-1,-1,-1,-1,-1,-1,-1,-1,-1,-1,-1,-1,-1,-1,-1,-1,-1,-1,-1,-1,-1,-1,-1,-1,-1,-1,-1,-1,-1,-1,-1,-1,-1,-1,-1,-1,-1,-1,-1,-1,-1,-1,-1,-1,-1,-1,-1,-1,-1,-1,-1,-1,-1,-1],"loss_changes":[1.0847318E3,1.338346E2,2.956725E2,2.8243164E1,2.9001678E1,1.7996252E1,3.2498413E1,1.0835205E1,1.4127289E1,5.9201202E0,2.6397552E1,9.184038E0,1.2118618E1,1.0961521E1,2.6326965E1,9.085022E0,8.9956665E0,3.0024734E0,6.1005554E0,5.464505E0,2.8221126E0,1.2186981E1,8.708828E0,1.2074776E0,6.2360787E0,5.225801E0,3.0819302E1,0E0,1.0523666E1,1.1511475E1,1.7567163E1,5.07254E0,7.932312E0,7.397156E0,3.339398E0,5.91905E0,3.042449E0,4.506424E0,8.839167E0,6.0963097E0,6.089697E0,0E0,1.9112282E0,9.692383E0,7.210028E0,4.4448223E0,4.9012184E0,0E0,0E0,9.209053E0,4.947075E0,4.5328465E0,1.2972975E0,9.275481E0,6.3654556E0,6.468197E0,1.0943518E1,1.1003052E1,3.2547152E0,1.196623E1,1.8947735E0,0E0,0E0,0E0,0E0,0E0,0E0,0E0,0E0,0E0,0E0,0E0,0E0,0E0,0E0,0E0,0E0,0E0,0E0,0E0,0E0,0E0,0E0,0E0,0E0,0E0,0E0,0E0,0E0,0E0,0E0,0E0,0E0,0E0,0E0,0E0,0E0,0E0,0E0,0E0,0E0,0E0,0E0,0E0,0E0,0E0,0E0,0E0,0E0,0E0,0E0,0E0,0E0,0E0,0E0],"parents":[2147483647,0,0,1,1,2,2,3,3,4,4,5,5,6,6,7,7,8,8,9,9,10,10,11,11,12,12,13,13,14,14,15,15,16,16,17,17,18,18,19,19,20,20,21,21,22,22,23,23,24,24,25,25,26,26,28,28,29,29,30,30,31,31,32,32,33,33,34,34,35,35,36,36,37,37,38,38,39,39,40,40,42,42,43,43,44,44,45,45,46,46,49,49,50,50,51,51,52,52,53,53,54,54,55,55,56,56,57,57,58,58,59,59,60,60],"right_children":[2,4,6,8,10,12,14,16,18,20,22,24,26,28,30,32,34,36,38,40,42,44,46,48,50,52,54,-1,56,58,60,62,64,66,68,70,72,74,76,78,80,-1,82,84,86,88,90,-1,-1,92,94,96,98,100,102,104,106,108,110,112,114,-1,-1,-1,-1,-1,-1,-1,-1,-1,-1,-1,-1,-1,-1,-1,-1,-1,-1,-1,-1,-1,-1,-1,-1,-1,-1,-1,-1,-1,-1,-1,-1,-1,-1,-1,-1,-1,-1,-1,-1,-1,-1,-1,-1,-1,-1,-1,-1,-1,-1,-1,-1,-1,-1],"split_conditions":[6.58506E1,5.0970455E1,9.473752E1,2.7433132E1,1.4770185E1,7.760402E1,1.023399E2,2.3154026E1,-5.8056015E1,2.0614283E1,5.9528885E1,-1.70875E2,1.12321205E1,-1.4824667E2,1.06738785E2,-4.7084366E1,2.0980284E1,3.2137154E1,3.491484E1,9.9999916E1,1.3242541E1,9.999544E1,1.0056366E1,2.4534128E1,8.559061E0,9.951172E1,2.9867332E1,3.2727274E-1,3.9032516E1,3.713156E1,2.4020197E2,1E2,8.303934E0,3.522013E1,6.7759075E0,4.3953423E1,4.9677116E1,1.7858038E1,8.605653E1,9.9996155E1,-6.274438E0,-1.5517244E-1,8.974806E1,5.0341408E1,1.914936E1,-1.15625E2,-2.4875E1,2.9032257E-1,3.1034475E-2,3.6349136E1,2.594954E1,5.996579E0,5.999875E1,6.294671E1,1.275775E1,9.929695E0,4.0750546E1,1.3745078E2,1.1185521E2,9.8638054E1,1.8453144E1,-3.240999E-2,2.2207792E-1,1.4516129E-1,-1.2057959E-1,-7.3935255E-2,-1.09719194E-1,-7.0904225E-2,3.0100204E-3,3.122449E-1,-5.7600018E-2,2.9469028E-1,-6.206898E-2,-8.4821045E-2,-2.735361E-2,-1.6459146E-1,1.855669E-2,-2.4697587E-2,-7.741472E-2,1.8431988E-2,-1.3362448E-1,-1.2857145E-1,1.7462687E-1,-7.6481976E-2,-1.2206607E-1,-3.259844E-2,1.1818182E-1,1.7999999E-1,-1.1033277E-1,-2.056276E-2,-4.667646E-2,-1.1366637E-1,3.2821488E-2,-1.2539798E-2,9.645714E-3,-2.252381E-2,-1.0105682E-1,-7.663455E-9,3.4054056E-1,-9.921466E-4,2.6333667E-2,3.311999E-2,1.3835754E-1,-1.4145398E-2,9.295522E-2,4.8358202E-2,-4.4410195E-2,1.3525423E-1,7.978266E-2,3.1858396E-2,-1.8461542E-1,-1.198899E-2,1.8791209E-1,3.7440002E-1,-7.663455E-9],"split_indices":[0,0,0,3,4,0,0,4,2,2,0,5,3,2,2,2,3,3,3,6,4,6,3,3,3,6,4,0,6,4,2,6,3,0,2,6,0,4,6,6,2,0,6,2,2,5,5,0,0,4,4,6,2,6,3,3,2,0,0,6,3,0,0,0,0,0,0,0,0,0,0,0,0,0,0,0,0,0,0,0,0,0,0,0,0,0,0,0,0,0,0,0,0,0,0,0,0,0,0,0,0,0,0,0,0,0,0,0,0,0,0,0,0,0,0],"split_type":[0,0,0,0,0,0,0,0,0,0,0,0,0,0,0,0,0,0,0,0,0,0,0,0,0,0,0,0,0,0,0,0,0,0,0,0,0,0,0,0,0,0,0,0,0,0,0,0,0,0,0,0,0,0,0,0,0,0,0,0,0,0,0,0,0,0,0,0,0,0,0,0,0,0,0,0,0,0,0,0,0,0,0,0,0,0,0,0,0,0,0,0,0,0,0,0,0,0,0,0,0,0,0,0,0,0,0,0,0,0,0,0,0,0,0],"sum_hessian":[3.4579996E4,1.9316443E4,1.5263555E4,9.627555E3,9.688889E3,1.1178222E4,4.085333E3,8.546222E3,1.0813333E3,1.9933333E3,7.695555E3,6.0159995E3,5.1622217E3,1.3257777E3,2.7595554E3,5.4497773E3,3.0964443E3,3.1111109E1,1.0502222E3,1.9684443E3,2.4888887E1,4.623111E3,3.0724443E3,1.1555555E1,6.004444E3,4.0177774E2,4.7604443E3,1.2444444E1,1.3133333E3,2.475111E3,2.8444443E2,4.6666664E1,5.403111E3,2.8746665E3,2.2177777E2,1.7333332E1,1.3777777E1,8.835555E2,1.6666666E2,1.5977777E3,3.7066666E2,2.222222E0,2.2666666E1,4.3804443E3,2.4266666E2,1.9333333E2,2.8791108E3,9.333333E0,2.222222E0,1.7377777E2,5.8306665E3,3.973333E2,4.444444E0,4.471111E3,2.893333E2,6.1288885E2,7.004444E2,2.4515554E3,2.3555553E1,2.702222E2,1.4222221E1,3.9111107E1,7.5555553E0,9.333333E0,5.3937773E3,6.9555554E2,2.179111E3,1.2311111E2,9.8666664E1,4.444444E0,1.2888888E1,1.1555555E1,2.222222E0,7.346666E2,1.4888889E2,2.7555553E1,1.391111E2,1.3675554E3,2.3022221E2,3.462222E2,2.4444443E1,1.3333333E0,2.1333332E1,3.9071108E3,4.733333E2,2.1066666E2,3.1999998E1,3.9999998E0,1.8933333E2,9.8622217E2,1.8928888E3,1.16888885E2,5.6888885E1,4.7119995E3,1.1186666E3,3.142222E2,8.311111E1,1.3333333E0,3.111111E0,2.2164443E3,2.2546665E3,6.844444E1,2.2088887E2,5.5555553E1,5.573333E2,5.573333E2,1.431111E2,2.0639998E3,3.8755554E2,1.1555555E1,1.1999999E1,2.4088887E2,2.9333332E1,1.2888888E1,1.3333333E0],"tree_param":{"num_deleted":"0","num_feature":"7","num_nodes":"115","size_leaf_vector":"0"}},{"base_weights":[2.2147997E-1,4.6250814E-1,-2.1565531E-1,6.377793E-1,2.8542513E-1,-6.790939E-2,-4.9447975E-1,6.989134E-1,5.3720546E-1,3.9306656E-1,2.1215382E-1,5.7964902E-2,-1.0573833E-1,-4.1480795E-1,-6.561388E-1,7.308566E-1,5.3587025E-1,3.4455687E-1,5.6504905E-1,4.2944503E-1,3.0629122E-1,3.459244E-1,1.926584E-1,1.92624E-1,1.8754298E-2,7.814306E-3,-1.3921167E-1,-3.5077736E-1,-4.8762196E-1,-6.154807E-1,-7.0900065E-1,4.346701E-1,7.543122E-1,4.8751223E-1,9.202454E-1,-4.5132747E-1,3.6288786E-1,5.7252115E-1,2.9171267E-1,3.4633842E-1,4.6245757E-1,3.21842E-1,-2.74448E-1,3.2258023E-2,3.8454664E-1,3.2968417E-1,1.7080416E-1,7.933884E-1,1.7227231E-1,-1.0775052E-1,5.115779E-2,5.120318E-2,-1.1833595E-1,-2.1009634E-1,-1.16871245E-1,-3.424741E-1,-5.599215E-1,-4.665472E-1,-6.430093E-1,-3.3727816E-1,-6.213648E-1,-1.5789478E-1,-7.136491E-1,8.742857E-1,3.645864E-1,1.2205323E0,7.4646556E-1,6.17839E-1,3.7968653E-1,1.0133971E0,-8.5714325E-2,-6.705883E-1,1.6216213E-1,6.8852454E-1,3.1951392E-1,6.4002115E-1,5.445648E-1,-1.7910452E-1,4.2075732E-1,5.8095235E-1,3.1506464E-1,5.0227714E-1,3.772455E-1,2.9573837E-1,5.5122775E-1,1.18811846E-1,-4.4000006E-1,-2.9670334E-1,1.8848164E-1,5.608919E-1,3.218806E-1,4.1070184E-1,2.0447281E-1,2.3124248E-1,1.3175784E-1,1.2631578E0,3.287671E-1,2.6525706E-1,4.9211312E-2,2.035776E-2,-3.078413E-1,2.5574496E-1,2.0376306E-2,9.590969E-2,-4.2143136E-2,-1.2760018E-1,8.181818E-1,-1.4601177E-1,-3.2700253E-1,-1.1326526E-1,-5.119454E-1,-3.7692425E-1,-3.0521214E-1,-5.9154934E-1,4.285714E-1,2.3999996E-1,-4.745731E-1,-6.54975E-1,4.285714E-1,-6.8807346E-1,2.6086953E-1,-7.3033714E-1,-6.065208E-1,8.571428E-1,-6E-1],"categories":[],"categories_nodes":[],"categories_segments":[],"categories_sizes":[],"default_left":[true,true,true,true,true,true,true,true,true,true,true,true,true,true,true,true,true,true,true,true,true,true,true,true,true,true,true,true,true,true,true,true,true,true,true,true,true,true,true,true,true,true,true,true,true,true,true,true,true,true,true,true,true,true,true,true,true,true,true,true,true,true,false,false,false,false,false,false,false,false,false,false,false,false,false,false,false,false,false,false,false,false,false,false,false,false,false,false,false,false,false,false,false,false,false,false,false,false,false,false,false,false,false,false,false,false,false,false,false,false,false,false,false,false,false,false,false,false,false,false,false,false,false,false,false],"id":1,"left_children":[1,3,5,7,9,11,13,15,17,19,21,23,25,27,29,31,33,35,37,39,41,43,45,47,49,51,53,55,57,59,61,63,65,67,69,71,73,75,77,79,81,83,85,87,89,91,93,95,97,99,101,103,105,107,109,111,113,115,117,119,121,123,-1,-1,-1,-1,-1,-1,-1,-1,-1,-1,-1,-1,-1,-1,-1,-1,-1,-1,-1,-1,-1,-1,-1,-1,-1,-1,-1,-1,-1,-1,-1,-1,-1,-1,-1,-1,-1,-1,-1,-1,-1,-1,-1,-1,-1,-1,-1,-1,-1,-1,-1,-1,-1,-1,-1,-1,-1,-1,-1,-1,-1,-1,-1],"loss_changes":[3.6436199E3,6.9166895E2,5.0630536E2,6.849902E1,8.738287E1,3.8267365E1,5.455664E1,3.5875977E1,2.2544678E1,1.4043274E1,1.7147034E1,9.803814E0,2.3486542E1,1.3136749E1,2.5804443E0,4.0105713E1,2.0825928E1,8.01123E0,7.3945312E0,8.513489E0,1.20984955E1,1.0143578E1,1.7202179E1,4.983534E0,5.9069905E0,7.7109466E0,7.5325394E0,2.451889E0,4.065277E0,1.101654E0,1.4338074E0,1.2912376E1,1.8812988E1,1.4081848E1,1.1966812E1,1.7976449E0,7.21402E0,6.4501953E0,6.184757E0,6.440872E0,7.4778137E0,7.595169E0,2.3454192E0,4.8353357E0,8.067078E0,7.946953E0,1.1704239E1,2.519166E0,4.6365366E0,7.539604E0,7.2166176E0,4.3780065E0,3.2326198E0,8.510479E0,5.1145325E0,1.7678375E0,2.0216694E0,6.790802E0,2.2880936E0,4.11959E0,8.239746E-1,3.356391E0,0E0,0E0,0E0,0E0,0E0,0E0,0E0,0E0,0E0,0E0,0E0,0E0,0E0,0E0,0E0,0E0,0E0,0E0,0E0,0E0,0E0,0E0,0E0,0E0,0E0,0E0,0E0,0E0,0E0,0E0,0E0,0E0,0E0,0E0,0E0,0E0,0E0,0E0,0E0,0E0,0E0,0E0,0E0,0E0,0E0,0E0,0E0,0E0,0E0,0E0,0E0,0E0,0E0,0E0,0E0,0E0,0E0,0E0,0E0,0E0,0E0,0E0,0E0],"parents":[2147483647,0,0,1,1,2,2,3,3,4,4,5,5,6,6,7,7,8,8,9,9,10,10,11,11,12,12,13,13,14,14,15,15,16,16,17,17,18,18,19,19,20,20,21,21,22,22,23,23,24,24,25,25,26,26,27,27,28,28,29,29,30,30,31,31,32,32,33,33,34,34,35,35,36,36,37,37,38,38,39,39,40,40,41,41,42,42,43,43,44,44,45,45,46,46,47,47,48,48,49,49,50,50,51,51,52,52,53,53,54,54,55,55,56,56,57,57,58,58,59,59,60,60,61,61],"right_children":[2,4,6,8,10,12,14,16,18,20,22,24,26,28,30,32,34,36,38,40,42,44,46,48,50,52,54,56,58,60,62,64,66,68,70,72,74,76,78,80,82,84,86,88,90,92,94,96,98,100,102,104,106,108,110,112,114,116,118,120,122,124,-1,-1,-1,-1,-1,-1,-1,-1,-1,-1,-1,-1,-1,-1,-1,-1,-1,-1,-1,-1,-1,-1,-1,-1,-1,-1,-1,-1,-1,-1,-1,-1,-1,-1,-1,-1,-1,-1,-1,-1,-1,-1,-1,-1,-1,-1,-1,-1,-1,-1,-1,-1,-1,-1,-1,-1,-1,-1,-1,-1,-1,-1,-1],"split_conditions":[7.113602E1,5.3463642E1,9.38828E1,4.63548E1,6.0047997E1,7.48258E1,1.1501436E2,2.6853718E1,1.3488056E1,2.3250053E1,1.2206987E-2,7.811768E-1,-4.744783E1,1.0251009E2,1.3170782E2,-2.8198917E1,4.6141308E1,1.6207679E-1,2.9794477E1,-3.3375E1,3.074399E1,2.7106857E-8,-5.05655E1,-6.527329E1,1.3246513E1,8.78038E1,1.7482622E1,3.4272636E1,2.9391808E1,9.311209E-8,-3.62125E2,2.192825E1,1.987167E1,1.6741402E1,6.619214E1,1.3213171E1,2.1615149E1,4.8601257E1,-3.2762836E1,-2.3690287E1,2.4375E1,2.0398842E1,9.403687E1,1.2052425E1,7.7562094E-1,6.6910095E1,6.404682E1,9.76544E-2,7.3099106E1,-4.4560486E1,-4.2993713E1,3.0150688E1,2.9239174E1,8.4363686E1,1.3839465E2,1.967813E1,1.0231024E2,4.5502493E-5,1.1489897E2,1.2460434E2,4.2341597E-2,1.5131648E2,-2.1409474E-1,2.622857E-1,1.0937593E-1,3.661597E-1,2.2393967E-1,1.853517E-1,1.1390597E-1,3.0401915E-1,-2.5714299E-2,-2.0117651E-1,4.864864E-2,2.0655738E-1,9.585418E-2,1.9200635E-1,1.6336945E-1,-5.373136E-2,1.262272E-1,1.7428571E-1,9.45194E-2,1.5068315E-1,1.1317365E-1,8.8721514E-2,1.6536833E-1,3.5643555E-2,-1.3200003E-1,-8.9011006E-2,5.6544494E-2,1.6826758E-1,9.656419E-2,1.2321056E-1,6.1341844E-2,6.937274E-2,3.9527353E-2,3.7894738E-1,9.863013E-2,7.957712E-2,1.4763394E-2,6.107328E-3,-9.235239E-2,7.672349E-2,6.112892E-3,2.877291E-2,-1.2642941E-2,-3.8280055E-2,2.4545455E-1,-4.380353E-2,-9.810076E-2,-3.397958E-2,-1.5358363E-1,-1.13077275E-1,-9.156364E-2,-1.7746481E-1,1.2857142E-1,7.199999E-2,-1.4237194E-1,-1.9649251E-1,1.2857142E-1,-2.0642205E-1,7.826086E-2,-2.1910115E-1,-1.8195623E-1,2.5714284E-1,-1.8E-1],"split_indices":[0,0,0,0,0,0,0,4,4,3,6,6,2,0,0,2,2,6,3,5,2,6,2,2,4,0,4,4,4,6,5,3,0,2,2,4,3,0,2,2,5,4,6,3,2,0,0,6,0,2,2,3,4,0,2,4,0,6,0,0,6,0,0,0,0,0,0,0,0,0,0,0,0,0,0,0,0,0,0,0,0,0,0,0,0,0,0,0,0,0,0,0,0,0,0,0,0,0,0,0,0,0,0,0,0,0,0,0,0,0,0,0,0,0,0,0,0,0,0,0,0,0,0,0,0],"split_type":[0,0,0,0,0,0,0,0,0,0,0,0,0,0,0,0,0,0,0,0,0,0,0,0,0,0,0,0,0,0,0,0,0,0,0,0,0,0,0,0,0,0,0,0,0,0,0,0,0,0,0,0,0,0,0,0,0,0,0,0,0,0,0,0,0,0,0,0,0,0,0,0,0,0,0,0,0,0,0,0,0,0,0,0,0,0,0,0,0,0,0,0,0,0,0,0,0,0,0,0,0,0,0,0,0,0,0,0,0,0,0,0,0,0,0,0,0,0,0,0,0,0,0,0,0],"sum_hessian":[3.4579996E4,2.2289777E4,1.2290222E4,1.1200889E4,1.1088889E4,8.0342217E3,4.2559995E3,6.962666E3,4.238222E3,4.489333E3,6.599555E3,1.8564443E3,6.1777773E3,2.8533333E3,1.4026666E3,5.819111E3,1.1435555E3,5.3688885E2,3.701333E3,3.1604443E3,1.3288888E3,8.373333E2,5.7622217E3,4.1777774E2,1.4386666E3,1.4066666E3,4.771111E3,1.5213333E3,1.3319999E3,7.9999994E2,6.026666E2,4.2844443E2,5.3906665E3,1.0177777E3,1.2577777E2,1.1555555E1,5.253333E2,3.6017776E3,9.955555E1,9.017777E2,2.2586665E3,1.2946666E3,3.422222E1,9.199999E1,7.453333E2,7.906666E2,4.971555E3,1.2444444E1,4.053333E2,2.928889E2,1.1457777E3,1.0471111E3,3.5955554E2,1.1413333E3,3.6297776E3,1.4657777E3,5.5555553E1,1.1764443E3,1.5555554E2,1.7777777E1,7.8222217E2,5.333333E0,5.973333E2,5.733333E1,3.7111108E2,8.6666664E1,5.3039995E3,4.5866663E2,5.591111E2,1.1511111E2,1.0666666E1,8.444444E0,3.111111E0,5.9999996E1,4.653333E2,1.0484443E3,2.5533333E3,2.1333332E1,7.822221E1,1.0399999E2,7.977777E2,1.5359999E3,7.226666E2,1.1644443E3,1.3022221E2,1.0222221E1,2.3999998E1,2.9333332E1,6.2666664E1,1.9333333E2,5.5199994E2,4.7866663E2,3.1199997E2,1.9493333E3,3.022222E3,5.333333E0,7.1111107E0,2.3022221E2,1.751111E2,1.791111E2,1.1377777E2,1.4888889E2,9.9688885E2,7.0799994E2,3.3911108E2,3.5688885E2,2.6666665E0,7.386666E2,4.0266666E2,3.598222E3,3.1555553E1,7.5688885E2,7.0888885E2,5.4222218E1,1.3333333E0,1.2888888E1,1.1635555E3,1.5422221E2,1.3333333E0,1.1111111E1,6.666666E0,8.799999E1,6.9422217E2,1.3333333E0,3.9999998E0],"tree_param":{"num_deleted":"0","num_feature":"7","num_nodes":"125","size_leaf_vector":"0"}},{"base_weights":[-1.12142555E-1,-2.2359766E-1,9.551183E-2,-3.0189994E-1,-1.4584261E-1,8.168207E-2,5.118809E-1,-3.4375063E-1,-2.503922E-1,-2.0898095E-1,-1.1834809E-1,6.826431E-2,4.571507E-1,5.491827E-1,-4.3795624E-1,-3.7403467E-1,-2.4720204E-1,-2.6300976E-1,3.2457452E-2,-4.3737173E-1,-1.9755529E-1,-1.2733474E-1,4.7789026E-2,2.2763725E-2,1.2562016E-1,6.007975E-1,2.1940619E-1,3.941267E-1,7.5575715E-1,-5.5200005E-1,4.285714E-1,-2.673738E-1,-3.9264014E-1,-2.1408994E-1,-5.5564207E-1,-2.64178E-1,7.35849E-1,-6.190477E-1,1.0221461E-1,-5.08475E-2,-4.8723903E-1,-2.8126332E-1,-1.7099078E-1,-2.8708582E-3,-1.3780923E-1,9.473684E-1,3.339823E-2,-4.3425396E-2,4.792398E-2,8.463363E-2,2.1378967E-1,7.5949326E-2,6.5943813E-1,-2.4916948E-1,3.471074E-1,-7.614218E-2,4.4495147E-1,8.01444E-1,-4.7368425E-1,-2.5544848E-8,-6.1061954E-1,2.8214967E-1,-3.162791E-1,-1.4634152E-1,-3.9974874E-1,-3.1269315E-1,-5.4118715E-2,-5.896996E-1,-2.0930237E-1,-2.5586405E-1,-4.0406138E-1,1.1707317E0,-4.2857146E-1,-3.2511625E-8,-7.0909095E-1,2.2273777E-1,-2.2641514E-1,-4.83871E-1,3.8709673E-1,-5.570033E-1,-3.0708668E-1,-3.2780597E-1,-8.053696E-2,-1.9271132E-1,-1.8286169E-2,1.5820597E-1,-1.0483624E-1,-1.0521247E-1,-1.9902444E-1,1.1999999E0,-2.5544848E-8,-1.1585872E-1,1.0943392E-1,9.836065E-1,-4.7426306E-2,-1.286507E-1,6.0361188E-2,7.253529E-2,3.4899324E-1,2.3896556E-1,3.108804E-2,7.741935E-1,-3.5294122E-1,1.3199999E0,6.13173E-1,-4.343892E-1,2.3595501E-1,-1.0243907E-1,4.468085E-1,-2.4277462E-1,8.181818E-1,-5.675676E-1,4.643478E-1,8.5714287E-1,1.0619465E-1,-2.5544848E-8,-6E-1,-6.804124E-1,-1.2000003E-1],"categories":[],"categories_nodes":[],"categories_segments":[],"categories_sizes":[],"default_left":[true,true,true,true,true,true,true,true,true,true,true,true,true,true,true,true,true,true,true,true,true,true,true,true,true,true,true,true,true,true,false,true,true,true,true,true,true,true,true,true,true,true,true,true,true,true,true,true,true,true,true,true,true,true,true,true,true,true,true,false,true,false,false,false,false,false,false,false,false,false,false,false,false,false,false,false,false,false,false,false,false,false,false,false,false,false,false,false,false,false,false,false,false,false,false,false,false,false,false,false,false,false,false,false,false,false,false,false,false,false,false,false,false,false,false,false,false,false,false],"id":2,"left_children":[1,3,5,7,9,11,13,15,17,19,21,23,25,27,29,31,33,35,37,39,41,43,45,47,49,51,53,55,57,59,-1,61,63,65,67,69,71,73,75,77,79,81,83,85,87,89,91,93,95,97,99,101,103,105,107,109,111,113,115,-1,117,-1,-1,-1,-1,-1,-1,-1,-1,-1,-1,-1,-1,-1,-1,-1,-1,-1,-1,-1,-1,-1,-1,-1,-1,-1,-1,-1,-1,-1,-1,-1,-1,-1,-1,-1,-1,-1,-1,-1,-1,-1,-1,-1,-1,-1,-1,-1,-1,-1,-1,-1,-1,-1,-1,-1,-1,-1,-1],"loss_changes":[8.0036884E2,1.3696448E2,6.951122E1,2.4081238E1,1.9579453E1,5.8870773E1,1.3991562E1,1.798523E1,1.7958008E1,8.850021E0,1.1755295E1,2.9459484E1,1.3638718E1,1.1678017E1,1.7408636E0,9.23114E0,1.498848E1,5.812866E0,9.86471E0,3.104187E0,7.208214E0,9.732864E0,5.205599E0,1.0487957E1,1.8028625E1,7.668213E0,9.268248E0,5.188595E0,9.323044E0,4.4941568E-1,0E0,1.8952236E1,6.951294E0,2.1079487E1,1.5607071E0,5.490448E0,3.483795E0,1.1705627E0,7.8002977E0,3.9168944E0,1.6345825E0,7.3031807E0,8.2211E0,9.551782E0,1.3720169E1,1.5157895E0,4.5433936E0,7.1749535E0,1.002806E1,1.0883425E1,7.278969E0,8.159297E0,6.080406E0,3.1076336E0,5.4690228E0,3.46059E0,4.0888176E0,5.8682556E0,3.7894738E-1,0E0,3.482747E-1,0E0,0E0,0E0,0E0,0E0,0E0,0E0,0E0,0E0,0E0,0E0,0E0,0E0,0E0,0E0,0E0,0E0,0E0,0E0,0E0,0E0,0E0,0E0,0E0,0E0,0E0,0E0,0E0,0E0,0E0,0E0,0E0,0E0,0E0,0E0,0E0,0E0,0E0,0E0,0E0,0E0,0E0,0E0,0E0,0E0,0E0,0E0,0E0,0E0,0E0,0E0,0E0,0E0,0E0,0E0,0E0,0E0,0E0],"parents":[2147483647,0,0,1,1,2,2,3,3,4,4,5,5,6,6,7,7,8,8,9,9,10,10,11,11,12,12,13,13,14,14,15,15,16,16,17,17,18,18,19,19,20,20,21,21,22,22,23,23,24,24,25,25,26,26,27,27,28,28,29,29,31,31,32,32,33,33,34,34,35,35,36,36,37,37,38,38,39,39,40,40,41,41,42,42,43,43,44,44,45,45,46,46,47,47,48,48,49,49,50,50,51,51,52,52,53,53,54,54,55,55,56,56,57,57,58,58,60,60],"right_children":[2,4,6,8,10,12,14,16,18,20,22,24,26,28,30,32,34,36,38,40,42,44,46,48,50,52,54,56,58,60,-1,62,64,66,68,70,72,74,76,78,80,82,84,86,88,90,92,94,96,98,100,102,104,106,108,110,112,114,116,-1,118,-1,-1,-1,-1,-1,-1,-1,-1,-1,-1,-1,-1,-1,-1,-1,-1,-1,-1,-1,-1,-1,-1,-1,-1,-1,-1,-1,-1,-1,-1,-1,-1,-1,-1,-1,-1,-1,-1,-1,-1,-1,-1,-1,-1,-1,-1,-1,-1,-1,-1,-1,-1,-1,-1,-1,-1,-1,-1],"split_conditions":[7.155917E1,5.3483665E1,1.1787731E2,4.488063E1,-1.83759E1,1.3745078E2,2.4020197E2,1.6662514E1,5.4785812E1,2.4413947E-2,2.8131023E1,8.7758896E1,8.750009E1,1.4895676E2,1.8453144E1,-2.0509563E1,4.5746014E1,4.2651474E1,6.1566815E0,1.6810802E1,1.0868752E1,9.931215E0,2.6627126E0,7.505676E1,1.8840073E1,2.0290744E-4,-1.8469794E2,6.0428667E0,9.992676E1,2.4357825E2,1.2857142E-1,2.99422E1,9.646716E-5,2.6867584E1,9.960939E1,9.999985E1,4.961228E1,3.0075695E1,2.55E1,2.1003635E1,2.3306335E1,3.5907104E1,9.999877E1,3.0042854E1,2.4362936E1,6.615112E1,5.9481197E1,7.1576904E1,-8.701188E1,1.57375E2,1.18488396E2,1.5440691E1,-2.4131537E2,4.0314262E1,9.751965E1,4.3603138E1,1.090624E-9,1.6486472E2,1.1995355E2,-7.663455E-9,4.116803E1,8.4644906E-2,-9.488374E-2,-4.3902457E-2,-1.1992463E-1,-9.380795E-2,-1.6235616E-2,-1.769099E-1,-6.2790714E-2,-7.675922E-2,-1.2121842E-1,3.512195E-1,-1.2857145E-1,-9.753488E-9,-2.127273E-1,6.682134E-2,-6.7924544E-2,-1.4516132E-1,1.16129026E-1,-1.67101E-1,-9.2126004E-2,-9.834179E-2,-2.416109E-2,-5.78134E-2,-5.485851E-3,4.7461793E-2,-3.1450875E-2,-3.1563744E-2,-5.9707332E-2,3.5999998E-1,-7.663455E-9,-3.4757618E-2,3.283018E-2,2.9508197E-1,-1.4227892E-2,-3.859521E-2,1.8108357E-2,2.1760589E-2,1.0469798E-1,7.168967E-2,9.326412E-3,2.3225807E-1,-1.0588237E-1,3.96E-1,1.8395191E-1,-1.3031676E-1,7.0786506E-2,-3.073172E-2,1.3404255E-1,-7.283239E-2,2.4545455E-1,-1.7027028E-1,1.3930435E-1,2.5714287E-1,3.1858396E-2,-7.663455E-9,-1.8E-1,-2.0412374E-1,-3.600001E-2],"split_indices":[0,0,2,0,2,0,2,2,2,6,3,0,6,2,3,2,2,3,3,3,4,3,6,0,2,6,2,3,6,2,0,0,6,4,6,6,0,4,5,4,3,3,6,4,4,0,0,0,2,5,0,2,2,3,6,4,6,0,0,0,4,0,0,0,0,0,0,0,0,0,0,0,0,0,0,0,0,0,0,0,0,0,0,0,0,0,0,0,0,0,0,0,0,0,0,0,0,0,0,0,0,0,0,0,0,0,0,0,0,0,0,0,0,0,0,0,0,0,0],"split_type":[0,0,0,0,0,0,0,0,0,0,0,0,0,0,0,0,0,0,0,0,0,0,0,0,0,0,0,0,0,0,0,0,0,0,0,0,0,0,0,0,0,0,0,0,0,0,0,0,0,0,0,0,0,0,0,0,0,0,0,0,0,0,0,0,0,0,0,0,0,0,0,0,0,0,0,0,0,0,0,0,0,0,0,0,0,0,0,0,0,0,0,0,0,0,0,0,0,0,0,0,0,0,0,0,0,0,0,0,0,0,0,0,0,0,0,0,0,0,0],"sum_hessian":[3.4579996E4,2.250222E4,1.2077777E4,1.1210222E4,1.1291999E4,1.1690666E4,3.8711108E2,6.1817773E3,5.0284443E3,3.4235554E3,7.868444E3,1.1288443E4,4.022222E2,3.7288885E2,1.4222221E1,4.703555E3,1.4782222E3,4.8137773E3,2.1466666E2,1.6133333E2,3.262222E3,7.4648887E3,4.0355554E2,6.295555E3,4.9928887E3,2.4977776E2,1.5244444E2,2.1466666E2,1.5822221E2,1.2888888E1,1.3333333E0,7.0088885E2,4.0026665E3,1.3364443E3,1.4177777E2,4.8088887E3,4.8888884E0,1.9999998E1,1.9466666E2,1.8666666E1,1.4266666E2,7.835555E2,2.4786665E3,5.7955554E2,6.885333E3,5.333333E0,3.982222E2,1.7337777E3,4.5617773E3,3.4097776E3,1.583111E3,2.5333332E1,2.2444443E2,3.2444443E1,1.1999999E2,2.0888887E1,1.9377777E2,1.5288889E2,5.333333E0,1.3333333E0,1.1555555E1,5.6888885E1,6.4399994E2,1.12888885E2,3.8897776E3,8.2622217E2,5.102222E2,1.2844444E2,1.3333332E1,4.5417773E3,2.6711108E2,3.5555553E0,1.3333333E0,2.6666665E0,1.7333332E1,1.4266666E2,5.1999996E1,9.333333E0,9.333333E0,1.0133333E2,4.1333332E1,6.3555554E2,1.4799998E2,2.1697776E3,3.088889E2,2.2444443E2,3.5511108E2,4.4946665E3,2.3906665E3,3.9999998E0,1.3333333E0,1.3422221E2,2.6399997E2,5.7777777E0,1.7279999E3,2.9955554E2,4.262222E3,3.2617776E3,1.4799998E2,1.3911111E3,1.9199998E2,9.333333E0,1.5999999E1,1.2888888E1,2.1155554E2,2.3555553E1,8.888888E0,2.1777777E1,9.822221E1,1.8222221E1,2.6666665E0,3.111111E0,1.9066666E2,1.4133333E2,1.1555555E1,1.3333333E0,3.9999998E0,9.777777E0,1.7777777E0],"tree_param":{"num_deleted":"0","num_feature":"7","num_nodes":"119","size_leaf_vector":"0"}},{"base_weights":[-8.5207954E-2,-2.0409355E-1,8.2495265E-2,-2.7606714E-1,-1.2536375E-1,2.6916338E-2,2.7795944E-1,-2.9118583E-1,-1.5822175E-1,-1.668264E-1,-7.635181E-2,9.170896E-3,1.2969297E-1,3.0037487E-1,6.689863E-2,-3.113059E-1,-2.1433435E-1,1.9401336E-1,-1.7876196E-1,-2.2040485E-1,-1.1599611E-1,-8.80768E-2,5.146504E-2,-1.24362394E-1,1.7263854E-2,2.0029616E-1,7.279193E-2,3.0429795E-1,-3.5369194E-1,1.7483909E-2,7.629844E-1,-3.2931578E-1,-2.3977105E-1,-1.6377743E-2,-2.3099937E-1,3.1758722E-2,6.885394E-1,-2.2015421E-1,-5.92578E-2,-1.9772528E-1,-3.1711215E-1,-1.1008288E-1,-5.4930866E-1,5.089954E-1,-8.971393E-2,-3.488245E-1,1.0330212E-1,2.3806925E-1,-1.5067351E-1,3.5069615E-3,1.373552E-1,4.4052806E-1,1.6777538E-1,3.233725E-2,2.2648834E-1,9.534148E-1,3.0035263E-1,-6.4851415E-1,-1.2840995E-1,-4.288836E-2,4.6430326E-1,-6.3388035E-2,8.288788E-1,-3.6066583E-1,-2.80785E-1,-4.0537116E-1,-2.0615982E-1,-3.7991455E-1,3.7714012E-2,1.04349E0,-2.3281269E-1,2.616366E-1,-5.025122E-1,8.407079E-1,-1.9327475E-1,9.171585E-1,-2.2721049E-1,-6.660112E-1,-2.5334354E-2,-2.1830198E-1,-4.4598546E-2,-3.5794568E-1,3.0355647E-2,-3.7103918E-1,-1.0001874E-1,-6.97903E-2,-5.93071E-1,-3.8670787E-1,1.061087E0,6.100043E-1,-9.110009E-2,-4.8498368E-1,5.769541E-1,-8.7206334E-2,1.8581492E-1,-3.6772096E-1,3.8130283E-1,1.5946054E-1,-1.8619391E-1,-2.313279E-2,3.237189E-2,-3.1732433E-2,1.851187E-1,-3.3852386E-1,5.728607E-1,9.347572E-2,2.8116414E-1,4.417173E-2,-5.688602E-1,6.218098E-3,3.766247E-1,1.2397012E0,-5.519258E-1,3.1450024E-1,1.5260087E-1,3.008794E-1,-5.9095854E-1,2.0467913E-1,-1.4186408E-1,7.265917E-1,-4.5622617E-1,9.4453925E-1,1.4469188E-1],"categories":[],"categories_nodes":[],"categories_segments":[],"categories_sizes":[],"default_left":[true,true,true,true,true,true,true,true,true,true,true,true,true,true,true,true,true,true,true,true,true,true,true,true,true,true,true,true,true,true,true,true,true,true,true,true,true,true,true,true,true,true,true,true,true,true,true,true,true,true,true,true,true,true,true,true,true,false,true,true,true,false,true,false,false,false,false,false,false,false,false,false,false,false,false,false,false,false,false,false,false,false,false,false,false,false,false,false,false,false,false,false,false,false,false,false,false,false,false,false,false,false,false,false,false,false,false,false,false,false,false,false,false,false,false,false,false,false,false,false,false,false,false],"id":3,"left_children":[1,3,5,7,9,11,13,15,17,19,21,23,25,27,29,31,33,35,37,39,41,43,45,47,49,51,53,55,57,59,61,63,65,67,69,71,73,75,77,79,81,83,85,87,89,91,93,95,97,99,101,103,105,107,109,111,113,-1,115,117,119,-1,121,-1,-1,-1,-1,-1,-1,-1,-1,-1,-1,-1,-1,-1,-1,-1,-1,-1,-1,-1,-1,-1,-1,-1,-1,-1,-1,-1,-1,-1,-1,-1,-1,-1,-1,-1,-1,-1,-1,-1,-1,-1,-1,-1,-1,-1,-1,-1,-1,-1,-1,-1,-1,-1,-1,-1,-1,-1,-1,-1,-1],"loss_changes":[6.753816E2,1.1228833E2,1.526567E2,1.8402588E1,1.9229233E1,1.9956205E1,1.46983185E1,1.4121948E1,8.568855E0,1.3941559E1,6.510412E0,1.0087643E1,6.45784E0,7.3233337E0,1.0304686E1,9.287231E0,6.287697E0,5.2317734E0,5.5028305E0,5.4109955E0,6.688259E0,3.9328995E0,7.6179547E0,5.1224813E0,1.4538086E1,5.538698E0,5.5493956E0,6.8737183E0,1.0610282E0,7.602996E0,1.1339703E0,8.730896E0,8.075523E0,2.9474747E0,4.307976E0,6.315058E0,2.3264637E0,6.852104E0,5.915984E0,6.368294E0,6.7139816E0,6.7904015E0,6.974621E-1,5.861842E0,3.9029827E0,5.5894055E0,5.1136026E0,3.3064606E0,5.514847E0,6.072944E0,7.3104134E0,8.961277E0,5.3181133E0,5.0669985E0,6.1503916E0,7.765093E0,5.7640076E0,0E0,2.364641E0,6.1196485E0,8.430925E0,0E0,1.32446E0,0E0,0E0,0E0,0E0,0E0,0E0,0E0,0E0,0E0,0E0,0E0,0E0,0E0,0E0,0E0,0E0,0E0,0E0,0E0,0E0,0E0,0E0,0E0,0E0,0E0,0E0,0E0,0E0,0E0,0E0,0E0,0E0,0E0,0E0,0E0,0E0,0E0,0E0,0E0,0E0,0E0,0E0,0E0,0E0,0E0,0E0,0E0,0E0,0E0,0E0,0E0,0E0,0E0,0E0,0E0,0E0,0E0,0E0,0E0,0E0],"parents":[2147483647,0,0,1,1,2,2,3,3,4,4,5,5,6,6,7,7,8,8,9,9,10,10,11,11,12,12,13,13,14,14,15,15,16,16,17,17,18,18,19,19,20,20,21,21,22,22,23,23,24,24,25,25,26,26,27,27,28,28,29,29,30,30,31,31,32,32,33,33,34,34,35,35,36,36,37,37,38,38,39,39,40,40,41,41,42,42,43,43,44,44,45,45,46,46,47,47,48,48,49,49,50,50,51,51,52,52,53,53,54,54,55,55,56,56,58,58,59,59,60,60,62,62],"right_children":[2,4,6,8,10,12,14,16,18,20,22,24,26,28,30,32,34,36,38,40,42,44,46,48,50,52,54,56,58,60,62,64,66,68,70,72,74,76,78,80,82,84,86,88,90,92,94,96,98,100,102,104,106,108,110,112,114,-1,116,118,120,-1,122,-1,-1,-1,-1,-1,-1,-1,-1,-1,-1,-1,-1,-1,-1,-1,-1,-1,-1,-1,-1,-1,-1,-1,-1,-1,-1,-1,-1,-1,-1,-1,-1,-1,-1,-1,-1,-1,-1,-1,-1,-1,-1,-1,-1,-1,-1,-1,-1,-1,-1,-1,-1,-1,-1,-1,-1,-1,-1,-1,-1],"split_conditions":[6.830221E1,5.3140804E1,1.0105388E2,2.7433132E1,2.0530571E1,9.251367E1,1.0680467E2,4.951174E1,-5.420183E1,6.0031265E1,9.999998E1,1.0284866E1,2.815564E1,3.9639988E1,2.3317876E2,2.639837E1,1.3786206E1,3.5212227E1,9.9994736E1,4.412531E1,2.0387466E1,2.3282983E-8,-8.173801E1,5.288162E0,2.8309227E1,-6.876655E1,2.9604694E1,1.2116394E-7,2.2810124E-2,9.8638054E1,2.757138E1,2.0740053E1,1.9073486E-4,1.9716644E1,2.7755559E-15,2.4125E1,5.248197E1,-6.7375E1,2.6323387E1,2.9686756E1,3.677774E1,8.001908E0,-7.7375E1,-4.3932793E1,2.054104E1,6.375E1,3.625E0,3.002792E-8,3.3501453E1,9.875E0,1.2090006E1,1.1840902E1,2.6029852E1,2.9111034E1,1.1269227E1,2.3322899E1,3.3533524E1,-1.9455425E-1,1.1559068E2,9.618876E0,2.019527E1,-1.9016411E-2,4.1016327E1,-1.0819975E-1,-8.4235504E-2,-1.2161135E-1,-6.1847948E-2,-1.1397437E-1,1.1314204E-2,3.1304702E-1,-6.984381E-2,7.849099E-2,-1.5075368E-1,2.5221238E-1,-5.7982426E-2,2.7514756E-1,-6.816315E-2,-1.9980337E-1,-7.6003065E-3,-6.5490596E-2,-1.33795645E-2,-1.07383706E-1,9.106695E-3,-1.11311756E-1,-3.0005623E-2,-2.0937093E-2,-1.779213E-1,-1.16012365E-1,3.1832612E-1,1.830013E-1,-2.7330028E-2,-1.4549512E-1,1.7308624E-1,-2.6161902E-2,5.5744477E-2,-1.1031629E-1,1.1439086E-1,4.7838166E-2,-5.5858176E-2,-6.9398372E-3,9.711567E-3,-9.51973E-3,5.5535614E-2,-1.01557165E-1,1.7185822E-1,2.8042717E-2,8.4349245E-2,1.3251519E-2,-1.7065805E-1,1.8654295E-3,1.12987414E-1,3.7191036E-1,-1.6557774E-1,9.435008E-2,4.5780264E-2,9.026382E-2,-1.7728756E-1,6.140374E-2,-4.2559225E-2,2.1797752E-1,-1.3686785E-1,2.833618E-1,4.3407567E-2],"split_indices":[0,0,0,3,3,0,2,0,2,0,6,3,6,4,2,4,4,3,6,2,3,6,2,3,4,2,3,6,6,6,4,3,6,3,6,5,0,5,0,4,4,3,5,2,3,5,5,6,2,5,3,4,4,3,4,3,3,0,0,3,3,0,4,0,0,0,0,0,0,0,0,0,0,0,0,0,0,0,0,0,0,0,0,0,0,0,0,0,0,0,0,0,0,0,0,0,0,0,0,0,0,0,0,0,0,0,0,0,0,0,0,0,0,0,0,0,0,0,0,0,0,0,0],"split_type":[0,0,0,0,0,0,0,0,0,0,0,0,0,0,0,0,0,0,0,0,0,0,0,0,0,0,0,0,0,0,0,0,0,0,0,0,0,0,0,0,0,0,0,0,0,0,0,0,0,0,0,0,0,0,0,0,0,0,0,0,0,0,0,0,0,0,0,0,0,0,0,0,0,0,0,0,0,0,0,0,0,0,0,0,0,0,0,0,0,0,0,0,0,0,0,0,0,0,0,0,0,0,0,0,0,0,0,0,0,0,0,0,0,0,0,0,0,0,0,0,0,0,0],"sum_hessian":[3.38731E4,1.98214E4,1.40517E4,1.0353698E4,9.467703E3,1.0941652E4,3.1100476E3,9.175128E3,1.1785709E3,5.1275464E3,4.3401562E3,9.331553E3,1.6100992E3,2.811078E3,2.989698E2,7.269013E3,1.9061146E3,6.447479E1,1.1140961E3,2.4946677E3,2.6328787E3,3.97576E3,3.6439648E2,5.3241254E2,8.799141E3,7.17411E2,8.9268823E2,2.794849E3,1.6228785E1,2.8011005E2,1.8859732E1,5.804139E3,1.4648739E3,1.4816066E2,1.757954E3,4.93479E1,1.512689E1,8.268578E2,2.8723828E2,2.0232296E3,4.714382E2,2.5986697E3,3.4208897E1,1.002406E1,3.9657358E3,4.112181E1,3.232747E2,3.5490322E1,4.969222E2,7.89569E3,9.034503E2,8.404229E1,6.333687E2,7.0763965E2,1.8504857E2,1.5430516E1,2.7794187E3,6.2157173E0,1.0013068E1,2.4756427E2,3.254578E1,1.395612E0,1.746412E1,3.522337E3,2.2818022E3,2.4528955E2,1.2195844E3,1.8409773E1,1.2975089E2,1.6814616E0,1.7562725E3,3.485942E1,1.44884815E1,1.294046E1,2.1864302E0,4.303186E0,8.225546E2,1.4222498E1,2.7301578E2,1.783185E3,2.4004446E2,4.2183508E2,4.9603134E1,9.5167694E1,2.503502E3,3.0779157E0,3.1130981E1,3.936734E0,6.0873265E0,6.9725876E0,3.9587634E3,3.626435E1,4.857457E0,9.768325E1,2.2559143E2,6.487003E0,2.900332E1,5.0706535E1,4.4621567E2,4.106217E3,3.7894731E3,1.9906741E2,7.0438293E2,1.19766655E1,7.206563E1,3.8374112E2,2.496276E2,6.948874E2,1.2752227E1,7.5427574E1,1.0962099E2,1.3113121E1,2.317395E0,2.535509E3,2.4390964E2,5.3745184E0,4.6385493E0,7.040146E1,1.7716281E2,2.5492756E1,7.0530257E0,1.4613252E1,2.8508685E0],"tree_param":{"num_deleted":"0","num_feature":"7","num_nodes":"123","size_leaf_vector":"0"}},{"base_weights":[1.6449696E-1,3.336026E-1,-1.7865895E-1,4.3398678E-1,1.8166985E-1,-4.968646E-2,-4.10902E-1,4.9164477E-1,3.622446E-1,2.2324462E-1,1.2091173E-1,3.9150745E-2,-7.606904E-2,-3.400874E-1,-5.9068686E-1,5.072063E-1,2.8483707E-1,3.6962017E-1,8.555435E-2,2.9105088E-1,1.91493E-1,1.4192125E-1,3.4723885E-2,1.5453775E-1,5.021932E-3,2.4394397E-2,-1.05928704E-1,-2.8424484E-1,-4.1376942E-1,-5.554806E-1,-6.414355E-1,5.820366E-1,4.525339E-1,3.1959876E-1,-8.526673E-2,3.1638566E-1,3.942113E-1,3.4348946E-2,4.1640976E-1,3.2263234E-1,1.7580251E-1,1.7716932E-1,4.3187925E-1,2.7036902E-1,1.16443336E-1,-4.839392E-1,5.1757045E-2,2.0945843E-3,2.2219877E-1,-9.974312E-2,4.0869996E-2,9.1622874E-2,-1.4438868E-2,-1.5789896E-1,-8.04361E-2,-2.4654062E-1,-3.40118E-1,-3.9268443E-1,-5.7139844E-1,-5.5911803E-1,1.290661E-1,-1.0283905E-1,-6.4692885E-1,6.682846E-1,4.994091E-1,4.3744954E-1,6.688691E-1,6.273296E-2,3.7116304E-1,-3.172281E-1,2.0124719E-1,2.836581E-1,4.2521682E-1,4.04361E-1,2.2740485E-1,-1.5149261E-1,1.8034725E-1,6.527666E-1,7.455037E-2,-5.05064E-1,3.2801202E-1,-7.857262E-2,2.7183E-1,4.0597916E-1,1.6259587E-1,8.321943E-1,2.982184E-1,8.658284E-1,2.5213876E-1,1.4623335E-1,4.495206E-2,-2.6028398E-2,-6.624323E-1,5.032837E-3,2.2912373E-1,-6.876762E-1,5.5117074E-2,3.8499597E-1,1.4123926E-1,3.4445908E-2,-2.8493673E-1,1.1149395E0,3.6333933E-2,-3.012195E-1,1.1350964E-1,2.939652E-2,-1.12926215E-1,-5.421111E-2,-2.18171E-1,-4.4594908E-1,-7.585089E-2,-2.5402424E-1,5.141169E-1,-3.5373437E-1,8.25835E-1,2.5296393E-1,-4.0021518E-1,-6.560053E-1,-4.5719784E-1,-2.833409E-1,-5.6564873E-1,-4.2076844E-1,5.6671906E-1,7.724576E-1,-5.402968E-1,-5.165738E-1,-6.5554225E-1],"categories":[],"categories_nodes":[],"categories_segments":[],"categories_sizes":[],"default_left":[true,true,true,true,true,true,true,true,true,true,true,true,true,true,true,true,true,true,true,true,true,true,true,true,true,true,true,true,true,true,true,true,true,true,true,true,true,true,true,true,true,true,true,true,true,true,true,true,true,true,true,true,true,true,true,true,true,true,true,true,true,true,true,false,false,false,false,false,false,false,false,false,false,false,false,false,false,false,false,false,false,false,false,false,false,false,false,false,false,false,false,false,false,false,false,false,false,false,false,false,false,false,false,false,false,false,false,false,false,false,false,false,false,false,false,false,false,false,false,false,false,false,false,false,false,false,false],"id":4,"left_children":[1,3,5,7,9,11,13,15,17,19,21,23,25,27,29,31,33,35,37,39,41,43,45,47,49,51,53,55,57,59,61,63,65,67,69,71,73,75,77,79,81,83,85,87,89,91,93,95,97,99,101,103,105,107,109,111,113,115,117,119,121,123,125,-1,-1,-1,-1,-1,-1,-1,-1,-1,-1,-1,-1,-1,-1,-1,-1,-1,-1,-1,-1,-1,-1,-1,-1,-1,-1,-1,-1,-1,-1,-1,-1,-1,-1,-1,-1,-1,-1,-1,-1,-1,-1,-1,-1,-1,-1,-1,-1,-1,-1,-1,-1,-1,-1,-1,-1,-1,-1,-1,-1,-1,-1,-1,-1],"loss_changes":[2.0577898E3,3.6221558E2,3.506258E2,5.8986572E1,2.3849823E1,1.7646427E1,5.3012573E1,2.5366943E1,1.2982056E1,1.2024536E1,6.952778E0,6.789789E0,1.7414936E1,1.2230133E1,1.7514954E0,2.9892822E1,7.193619E0,8.0061035E0,2.8127937E0,6.449524E0,1.3091812E1,1.0077583E1,6.6897297E0,4.059022E0,5.005768E0,3.4754884E0,5.9157143E0,3.519226E0,4.068466E0,1.8250885E0,1.3440247E0,2.1817871E1,1.3621094E1,6.723896E0,3.2948344E0,6.8876038E0,7.094055E0,3.9777694E0,1.7511864E0,6.407913E0,9.466903E0,1.197525E1,1.1222126E1,5.323799E0,5.487007E0,1.9512043E0,6.0594587E0,4.4996877E0,3.5381832E0,8.454612E0,4.797283E0,4.2246313E0,3.6486564E0,9.1847725E0,5.0010395E0,5.9644814E0,1.1190941E1,5.6559906E0,1.1512375E0,1.1012726E0,1.3293712E0,2.7157385E0,1.910553E-1,0E0,0E0,0E0,0E0,0E0,0E0,0E0,0E0,0E0,0E0,0E0,0E0,0E0,0E0,0E0,0E0,0E0,0E0,0E0,0E0,0E0,0E0,0E0,0E0,0E0,0E0,0E0,0E0,0E0,0E0,0E0,0E0,0E0,0E0,0E0,0E0,0E0,0E0,0E0,0E0,0E0,0E0,0E0,0E0,0E0,0E0,0E0,0E0,0E0,0E0,0E0,0E0,0E0,0E0,0E0,0E0,0E0,0E0,0E0,0E0,0E0,0E0,0E0,0E0],"parents":[2147483647,0,0,1,1,2,2,3,3,4,4,5,5,6,6,7,7,8,8,9,9,10,10,11,11,12,12,13,13,14,14,15,15,16,16,17,17,18,18,19,19,20,20,21,21,22,22,23,23,24,24,25,25,26,26,27,27,28,28,29,29,30,30,31,31,32,32,33,33,34,34,35,35,36,36,37,37,38,38,39,39,40,40,41,41,42,42,43,43,44,44,45,45,46,46,47,47,48,48,49,49,50,50,51,51,52,52,53,53,54,54,55,55,56,56,57,57,58,58,59,59,60,60,61,61,62,62],"right_children":[2,4,6,8,10,12,14,16,18,20,22,24,26,28,30,32,34,36,38,40,42,44,46,48,50,52,54,56,58,60,62,64,66,68,70,72,74,76,78,80,82,84,86,88,90,92,94,96,98,100,102,104,106,108,110,112,114,116,118,120,122,124,126,-1,-1,-1,-1,-1,-1,-1,-1,-1,-1,-1,-1,-1,-1,-1,-1,-1,-1,-1,-1,-1,-1,-1,-1,-1,-1,-1,-1,-1,-1,-1,-1,-1,-1,-1,-1,-1,-1,-1,-1,-1,-1,-1,-1,-1,-1,-1,-1,-1,-1,-1,-1,-1,-1,-1,-1,-1,-1,-1,-1,-1,-1,-1,-1],"split_conditions":[7.144383E1,5.6561016E1,9.257492E1,4.6998306E1,6.480054E1,7.48258E1,1.1608638E2,2.9374088E1,3.3564556E1,3.7560024E0,9.960944E1,7.811768E-1,-4.744783E1,1.0251009E2,1.3405417E2,1.9305504E1,4.589657E1,1.7689354E1,7.375E1,2.9445902E1,5.3571003E1,-3.8002045E1,1.4105219E1,5.7241996E-4,1.4372855E1,8.035915E1,1.9074665E1,8.347351E0,2.938494E1,1.3383919E2,-3.62125E2,2.178875E1,4.3201263E1,6.8483826E1,-1.974464E1,9.999388E1,3.3802177E1,-3.3473633E1,5.4233154E1,5.663039E1,2.7793396E1,9.096519E0,2.3389585E1,1.2206906E-2,2.095278E1,9.980877E1,1.8679005E1,6.123044E0,1.7665628E-2,-4.328885E1,1.439656E1,-1.160284E2,1.60485E1,7.96315E1,6.0044966E0,7.8581257E0,9.999968E1,4.5502493E-5,1.09802704E2,9.311209E-8,1.470306E1,1.5131648E2,1.155172E1,2.004854E-1,1.4982274E-1,1.3123487E-1,2.0066074E-1,1.8819887E-2,1.1134892E-1,-9.5168434E-2,6.037416E-2,8.509743E-2,1.2756506E-1,1.21308304E-1,6.822146E-2,-4.5447785E-2,5.4104175E-2,1.9582999E-1,2.2365112E-2,-1.5151921E-1,9.840361E-2,-2.3571787E-2,8.1549E-2,1.21793754E-1,4.877876E-2,2.496583E-1,8.946552E-2,2.5974852E-1,7.564163E-2,4.3870006E-2,1.3485619E-2,-7.80852E-3,-1.9872971E-1,1.5098512E-3,6.873712E-2,-2.0630287E-1,1.6535124E-2,1.15498796E-1,4.237178E-2,1.0333773E-2,-8.548102E-2,3.3448184E-1,1.0900181E-2,-9.036585E-2,3.4052894E-2,8.818957E-3,-3.3877864E-2,-1.6263334E-2,-6.54513E-2,-1.3378473E-1,-2.2755267E-2,-7.620727E-2,1.5423506E-1,-1.0612032E-1,2.477505E-1,7.5889185E-2,-1.2006456E-1,-1.968016E-1,-1.3715936E-1,-8.500227E-2,-1.6969463E-1,-1.2623054E-1,1.7001572E-1,2.3173729E-1,-1.6208905E-1,-1.5497214E-1,-1.9666268E-1],"split_indices":[0,0,0,0,0,0,0,3,3,6,6,6,2,0,0,4,0,4,5,4,2,2,3,6,4,0,4,2,4,0,5,3,2,6,2,6,4,2,0,0,2,4,4,6,3,6,4,3,6,2,4,2,4,0,3,2,6,6,0,6,4,0,3,0,0,0,0,0,0,0,0,0,0,0,0,0,0,0,0,0,0,0,0,0,0,0,0,0,0,0,0,0,0,0,0,0,0,0,0,0,0,0,0,0,0,0,0,0,0,0,0,0,0,0,0,0,0,0,0,0,0,0,0,0,0,0,0],"split_type":[0,0,0,0,0,0,0,0,0,0,0,0,0,0,0,0,0,0,0,0,0,0,0,0,0,0,0,0,0,0,0,0,0,0,0,0,0,0,0,0,0,0,0,0,0,0,0,0,0,0,0,0,0,0,0,0,0,0,0,0,0,0,0,0,0,0,0,0,0,0,0,0,0,0,0,0,0,0,0,0,0,0,0,0,0,0,0,0,0,0,0,0,0,0,0,0,0,0,0,0,0,0,0,0,0,0,0,0,0,0,0,0,0,0,0,0,0,0,0,0,0,0,0,0,0,0,0],"sum_hessian":[3.5459008E4,2.3753447E4,1.1705562E4,1.4302031E4,9.451417E3,7.5268555E3,4.1787056E3,7.9261016E3,6.3759297E3,5.610003E3,3.8414133E3,1.7233595E3,5.803496E3,2.9999585E3,1.1787473E3,7.3700767E3,5.560249E2,6.2100566E3,1.6587326E2,1.7865728E3,3.8234304E3,3.0880183E3,7.5339514E2,3.9257254E2,1.330787E3,1.3297402E3,4.4737554E3,1.7093347E3,1.2906238E3,7.0299677E2,4.757505E2,3.107369E3,4.262708E3,5.0840942E2,4.7615486E1,1.9666174E3,4.243439E3,1.445981E2,2.1275152E1,1.4008883E3,3.8568445E2,3.610058E3,2.1337224E2,5.0954044E2,2.5784778E3,2.3083593E1,7.303115E2,1.2099547E2,2.7157706E2,3.388179E2,9.9196906E2,4.863711E2,8.433692E2,1.470579E3,3.0031765E3,1.02384094E3,6.8549384E2,1.1414331E3,1.4919063E2,6.994633E2,3.533447E0,5.0024824E0,4.7074802E2,1.5169075E3,1.5904613E3,3.987682E3,2.7502594E2,8.536801E1,4.230414E2,2.625349E1,2.1361998E1,1.5147194E3,4.518981E2,3.9987048E3,2.4473422E2,6.3601715E1,8.099639E1,1.204083E1,9.234323E0,8.446593E0,1.3924418E3,1.0574625E2,2.799382E2,2.145572E2,3.395501E3,5.2101562E1,1.6127068E2,1.3755249E1,4.957852E2,1.8193285E3,7.591494E2,6.795659E0,1.6287935E1,5.7885144E2,1.514601E2,7.782552E0,1.1321292E2,8.895226E1,1.826248E2,1.9693512E2,1.4188278E2,3.1422348E0,9.888268E2,2.4994041E1,4.6137708E2,5.84097E2,2.5927216E2,5.412865E2,9.292925E2,3.6014336E1,2.9671624E3,1.0145257E3,9.315227E0,6.782694E2,7.224431E0,1.2784263E1,1.1286488E3,8.297402E1,6.6216606E1,1.7207672E1,6.822557E2,1.5831168E0,1.9503303E0,1.4118214E0,3.590661E0,3.295663E1,4.3779138E2],"tree_param":{"num_deleted":"0","num_feature":"7","num_nodes":"127","size_leaf_vector":"0"}},{"base_weights":[-8.700055E-2,-1.7809515E-1,7.3778614E-2,-2.3954968E-1,-1.1085072E-1,6.323675E-2,3.774574E-1,-2.5528574E-1,-1.3067234E-1,-1.6274494E-1,-8.817872E-2,5.2975975E-2,3.384699E-1,3.9687964E-1,-6.3344085E-1,-2.8872365E-1,-2.1545713E-1,3.057032E-1,-1.499595E-1,-2.8409028E-1,-1.4670148E-1,-5.8775432E-2,-1.3464463E-1,1.6270222E-2,9.8863885E-2,3.895293E-1,-7.548987E-2,3.661734E-1,1.0172715E0,-3.0672345E-1,-2.0640868E-1,-2.0608775E-1,-3.467845E-1,6.51265E-1,-3.2766777E-1,-1.8325998E-1,1.0752809E-2,-3.0037868E-1,3.1354254E-1,-2.2724694E-1,-1.1733958E-1,-1.3632646E-1,-9.377005E-3,-2.3899853E-2,-1.7499104E-1,6.794433E-1,1.40146995E-2,6.6065095E-2,1.6845141E-1,4.371272E-1,8.6966634E-2,4.6319085E-1,-1.7783687E-1,3.9606827E-1,-1.2586655E-1,-5.5228055E-2,1.1090988E0,-2.1247968E-1,-3.235245E-1,-2.690516E-1,-8.6127706E-2,-2.1932395E-1,-6.1466854E-2,-4.5511383E-1,-1.7236808E-1,-1.04591265E-1,8.5085183E-1,2.4435855E-1,-5.524265E-1,-1.3307944E-1,-2.9269E-1,-3.449646E-1,1.6451317E-1,-3.5344267E-1,-1.4869095E-1,-2.2842261E-1,1.2133918E0,-4.5213172E-1,-1.7751898E-1,-1.4136432E-1,3.709258E-2,2.1962242E-1,-1.4500098E-1,-1.4687441E-1,2.7870242E-2,-4.6367932E-2,7.399914E-1,7.85385E-1,-1.788627E-1,3.8013557E-1,1.2700515E0,-3.942973E-2,3.4318652E-2,7.622451E-1,6.2206607E-2,1.769596E-1,-3.1796202E-1,3.341953E-1,6.34845E-1,1.00908E0,-9.135714E-2,-4.1375032E-1,6.9963115E-1,3.6695632E-1,-3.8713792E-1,2.6376173E-1,5.755904E-1,-5.5226845E-1,4.2428288E-1],"categories":[],"categories_nodes":[],"categories_segments":[],"categories_sizes":[],"default_left":[true,true,true,true,true,true,true,true,true,true,true,true,true,true,false,true,true,true,true,true,true,true,true,true,true,true,true,true,true,true,true,true,true,true,true,true,true,true,true,true,true,true,true,true,true,true,true,true,true,true,true,true,true,true,true,false,false,false,false,false,false,false,false,false,false,false,false,false,false,false,false,false,false,false,false,false,false,false,false,false,false,false,false,false,false,false,false,false,false,false,false,false,false,false,false,false,false,false,false,false,false,false,false,false,false,false,false,false,false],"id":5,"left_children":[1,3,5,7,9,11,13,15,17,19,21,23,25,27,-1,29,31,33,35,37,39,41,43,45,47,49,51,53,55,57,59,61,63,65,67,69,71,73,75,77,79,81,83,85,87,89,91,93,95,97,99,101,103,105,107,-1,-1,-1,-1,-1,-1,-1,-1,-1,-1,-1,-1,-1,-1,-1,-1,-1,-1,-1,-1,-1,-1,-1,-1,-1,-1,-1,-1,-1,-1,-1,-1,-1,-1,-1,-1,-1,-1,-1,-1,-1,-1,-1,-1,-1,-1,-1,-1,-1,-1,-1,-1,-1,-1],"loss_changes":[4.9607904E2,8.932037E1,3.9193962E1,1.9319763E1,1.2134514E1,3.3421307E1,8.316845E0,1.3080322E1,1.2068516E1,6.068199E0,9.813316E0,1.9227402E1,9.020309E0,7.3172417E0,0E0,7.8807373E0,5.4750977E0,1.3519123E1,7.326866E0,3.6513424E0,6.5337563E0,1.6871256E1,1.2440193E1,9.479729E0,1.1568222E1,5.4176292E0,2.7035758E0,5.730484E0,1.880722E0,6.8942566E0,7.2486916E0,8.045456E0,5.5656357E0,6.0732574E0,2.979577E0,6.1871147E0,1.2957478E1,2.8148308E0,5.2439976E0,8.195324E0,7.5554523E0,5.323311E0,1.3788824E1,1.2818822E1,7.7303467E0,3.3146877E0,6.8631296E0,9.219397E0,6.779537E0,6.4445076E0,8.764998E0,1.9209217E0,4.780122E0,8.501247E0,5.6012855E0,0E0,0E0,0E0,0E0,0E0,0E0,0E0,0E0,0E0,0E0,0E0,0E0,0E0,0E0,0E0,0E0,0E0,0E0,0E0,0E0,0E0,0E0,0E0,0E0,0E0,0E0,0E0,0E0,0E0,0E0,0E0,0E0,0E0,0E0,0E0,0E0,0E0,0E0,0E0,0E0,0E0,0E0,0E0,0E0,0E0,0E0,0E0,0E0,0E0,0E0,0E0,0E0,0E0,0E0],"parents":[2147483647,0,0,1,1,2,2,3,3,4,4,5,5,6,6,7,7,8,8,9,9,10,10,11,11,12,12,13,13,15,15,16,16,17,17,18,18,19,19,20,20,21,21,22,22,23,23,24,24,25,25,26,26,27,27,28,28,29,29,30,30,31,31,32,32,33,33,34,34,35,35,36,36,37,37,38,38,39,39,40,40,41,41,42,42,43,43,44,44,45,45,46,46,47,47,48,48,49,49,50,50,51,51,52,52,53,53,54,54],"right_children":[2,4,6,8,10,12,14,16,18,20,22,24,26,28,-1,30,32,34,36,38,40,42,44,46,48,50,52,54,56,58,60,62,64,66,68,70,72,74,76,78,80,82,84,86,88,90,92,94,96,98,100,102,104,106,108,-1,-1,-1,-1,-1,-1,-1,-1,-1,-1,-1,-1,-1,-1,-1,-1,-1,-1,-1,-1,-1,-1,-1,-1,-1,-1,-1,-1,-1,-1,-1,-1,-1,-1,-1,-1,-1,-1,-1,-1,-1,-1,-1,-1,-1,-1,-1,-1,-1,-1,-1,-1,-1,-1],"split_conditions":[7.151903E1,5.4501965E1,1.1787731E2,3.18903E1,-1.83759E1,1.3745078E2,9.997778E1,4.488063E1,3.869123E-9,3.9062136E-1,2.4288929E1,8.7758896E1,9.999955E1,2.1855274E1,-1.9003226E-1,1.6662514E1,9.999985E1,5.2227745E1,5.736757E1,2.8501287E1,1.1061601E1,1.2159853E1,1.12552395E1,3.3035308E-10,1.8840073E1,1.8459898E2,7.215991E0,1.6152023E2,-7.675E1,-2.0509563E1,2.6917301E1,2.9095726E1,-1.3699444E1,3.536674E1,9.6581516E-14,4.4826202E1,4.874813E1,-2.5450985E1,1.5853821E1,2.5801365E1,9.999877E1,1.0145526E1,5.733985E1,9.963092E1,3.5128053E-11,9.586694E1,7.505676E1,4.9400415E0,9.999939E1,1.5921246E2,1.5624969E0,9.999992E1,2.5258148E1,1.4895676E2,1.4795979E1,-1.6568417E-2,3.3272964E-1,-6.3743904E-2,-9.705736E-2,-8.0715485E-2,-2.5838314E-2,-6.579719E-2,-1.8440057E-2,-1.3653415E-1,-5.1710427E-2,-3.1377383E-2,2.5525555E-1,7.330757E-2,-1.6572796E-1,-3.992383E-2,-8.780701E-2,-1.03489384E-1,4.9353953E-2,-1.060328E-1,-4.460729E-2,-6.852679E-2,3.6401755E-1,-1.3563952E-1,-5.3255696E-2,-4.2409297E-2,1.1127775E-2,6.588673E-2,-4.3500297E-2,-4.4062324E-2,8.361073E-3,-1.391038E-2,2.2199744E-1,2.356155E-1,-5.3658813E-2,1.1404067E-1,3.8101545E-1,-1.182892E-2,1.0295596E-2,2.2867355E-1,1.8661983E-2,5.3087883E-2,-9.538861E-2,1.0025859E-1,1.9045351E-1,3.0272403E-1,-2.7407143E-2,-1.241251E-1,2.0988935E-1,1.100869E-1,-1.1614138E-1,7.912852E-2,1.7267711E-1,-1.6568054E-1,1.2728487E-1],"split_indices":[0,0,2,2,2,0,6,0,6,6,2,0,6,3,0,2,6,2,2,4,4,6,3,6,2,0,4,0,5,2,4,3,2,2,6,2,0,2,3,3,6,3,0,6,6,2,0,4,6,0,6,6,3,2,3,0,0,0,0,0,0,0,0,0,0,0,0,0,0,0,0,0,0,0,0,0,0,0,0,0,0,0,0,0,0,0,0,0,0,0,0,0,0,0,0,0,0,0,0,0,0,0,0,0,0,0,0,0,0],"split_type":[0,0,0,0,0,0,0,0,0,0,0,0,0,0,0,0,0,0,0,0,0,0,0,0,0,0,0,0,0,0,0,0,0,0,0,0,0,0,0,0,0,0,0,0,0,0,0,0,0,0,0,0,0,0,0,0,0,0,0,0,0,0,0,0,0,0,0,0,0,0,0,0,0,0,0,0,0,0,0,0,0,0,0,0,0,0,0,0,0,0,0,0,0,0,0,0,0,0,0,0,0,0,0,0,0,0,0,0,0],"sum_hessian":[3.3869137E4,2.1619697E4,1.2249441E4,1.1294821E4,1.0324875E4,1.1839649E4,4.0979175E2,9.867349E3,1.4274733E3,3.13742E3,7.1874546E3,1.1415277E4,4.2437253E2,4.0266284E2,7.1289005E0,5.3606177E3,4.506731E3,5.979314E1,1.36768E3,3.6441852E2,2.7730015E3,4.403327E3,2.7841277E3,6.3429243E3,5.0723525E3,3.7782867E2,4.654384E1,3.851882E2,1.7474642E1,4.396508E3,9.641099E2,4.2090137E3,2.9771707E2,3.866797E1,2.112517E1,1.1328145E3,2.3486563E2,3.5523407E2,9.184466E0,7.390107E2,2.0339908E3,1.7127329E3,2.6905942E3,7.4388055E2,2.0402471E3,2.0482164E1,6.3224424E3,3.4487822E3,1.6235702E3,3.260855E2,5.1743176E1,6.868312E0,3.9675526E1,3.633096E2,2.1878584E1,1.4096105E0,1.6065031E1,6.672548E2,3.729253E3,6.331338E2,3.309761E2,3.8556182E3,3.533955E2,1.8265898E2,1.150581E2,8.17695E0,3.049102E1,5.934432E0,1.5190738E1,7.781843E2,3.5463016E2,7.050714E1,1.6435849E2,2.621853E2,9.304877E1,6.197789E0,2.9866772E0,1.3235762E2,6.06653E2,1.7602383E3,2.7375253E2,4.016796E1,1.672565E3,5.7287933E2,2.1177148E3,7.2353864E2,2.03419E1,7.381547E0,2.0328655E3,1.4684172E1,5.797993E0,1.7403967E3,4.5820454E3,1.7925724E1,3.4308567E3,1.5962847E3,2.7285475E1,2.162145E2,1.09871025E2,7.6299505E0,4.4113224E1,1.2993172E0,5.5689945E0,1.0802993E1,2.8872534E1,2.105816E2,1.52728E2,1.2323338E1,9.555246E0],"tree_param":{"num_deleted":"0","num_feature":"7","num_nodes":"109","size_leaf_vector":"0"}},{"base_weights":[-6.5795235E-2,-1.713017E-1,5.4046463E-2,-2.3661785E-1,-1.17039576E-1,1.68388E-3,1.8071795E-1,-2.527779E-1,-1.16396055E-1,-3.6115512E-2,-1.3834286E-1,-2.2415416E-2,3.0632935E-2,1.1014765E-1,2.245936E-1,-2.7732277E-1,-2.0913167E-1,1.1961648E-1,-1.4740932E-1,4.7932956E-3,-9.815944E-2,-1.8288757E-1,-9.877684E-2,6.722451E-1,-2.3955217E-2,-1.7998127E-2,6.0896076E-2,6.216724E-1,1.0093034E-1,2.3674996E-1,-6.9076695E-2,5.045228E-1,-2.7920294E-1,-1.7775837E-1,-3.5068965E-1,4.2451936E-1,-1.2678838E-1,-2.1870229E-1,-7.302068E-2,1.0082908E0,1.1069811E-3,-6.490999E-1,-9.057655E-2,1.254634E0,-1.8479747E-1,-2.7704364E-1,-8.674792E-2,7.6294184E-1,-5.5516172E-2,3.8826976E-2,-3.5032626E-2,-7.8184046E-2,5.161525E-2,1.5749264E-1,2.5723096E-2,2.7603793E-1,8.399936E-1,1.7512293E-1,3.409436E-2,2.5852093E-1,1.448082E-1,-2.8391606E-1,1.6219392E-1,8.1651026E-1,-2.7911776E-1,-3.123856E-1,-2.3376617E-1,-4.4020426E-1,-1.6285615E-1,-3.8623154E-1,7.633442E-2,4.8709905E-1,-1.2837614E-1,8.767689E-1,-2.4179067E-1,-2.2605008E-1,1.0245178E0,-1.1057215E-1,2.7279374E-1,-2.5781986E-1,1.6856374E-2,-1.275925E-1,5.02821E-2,-2.7064553E-1,-1.6522446E-1,5.4172146E-1,-3.0917284E-1,-1.0117362E-1,4.863197E-3,8.3651143E-1,2.2517376E-1,1.1663249E-1,-8.313686E-2,-1.3648595E-1,-2.373669E-2,-6.9408405E-1,-7.046872E-2,-6.257296E-2,1.14452496E-1,-4.6725553E-1,1.8666643E-1,-2.1236524E-2,1.1195897E-1,-5.59568E-1,5.0392765E-1,1.0129682E0,1.5122937E-1,-4.3652087E-1,1.896012E-1,7.3569745E-2,-1.3588504E-1,2.7734917E-1,5.9455927E-2,-6.3035494E-1,1.755101E-1,-6.099221E-1,1.712679E-1,-5.0776476E-1,3.3623448E-1],"categories":[],"categories_nodes":[],"categories_segments":[],"categories_sizes":[],"default_left":[true,true,true,true,true,true,true,true,true,true,true,true,true,true,true,true,true,true,true,true,true,true,true,true,true,true,true,true,true,true,true,true,true,true,true,true,true,true,true,false,true,false,true,false,true,true,true,true,false,true,true,true,true,true,true,true,true,true,true,true,true,true,true,false,false,false,false,false,false,false,false,false,false,false,false,false,false,false,false,false,false,false,false,false,false,false,false,false,false,false,false,false,false,false,false,false,false,false,false,false,false,false,false,false,false,false,false,false,false,false,false,false,false,false,false,false,false,false,false],"id":6,"left_children":[1,3,5,7,9,11,13,15,17,19,21,23,25,27,29,31,33,35,37,39,41,43,45,47,49,51,53,55,57,59,61,63,65,67,69,71,73,75,77,-1,79,-1,81,-1,83,85,87,89,-1,91,93,95,97,99,101,103,105,107,109,111,113,115,117,-1,-1,-1,-1,-1,-1,-1,-1,-1,-1,-1,-1,-1,-1,-1,-1,-1,-1,-1,-1,-1,-1,-1,-1,-1,-1,-1,-1,-1,-1,-1,-1,-1,-1,-1,-1,-1,-1,-1,-1,-1,-1,-1,-1,-1,-1,-1,-1,-1,-1,-1,-1,-1,-1,-1,-1],"loss_changes":[4.1950934E2,6.2507202E1,1.03036255E2,1.5523865E1,1.6613312E1,7.6692357E0,1.4042892E1,7.5012207E0,6.97449E0,5.1025877E0,1.3430359E1,6.432865E0,7.3508277E0,8.158894E0,1.0014328E1,6.775421E0,1.1235443E1,8.388754E0,4.4415894E0,4.483714E0,3.2783737E0,1.0083443E1,8.646156E0,9.203963E-1,4.1648912E0,8.033287E0,1.0455554E1,2.082572E0,8.493765E0,5.3460083E0,5.615605E0,2.962174E0,6.7164E0,8.08046E0,7.0183907E0,1.7861166E0,7.38207E0,4.1475906E0,5.3910666E0,0E0,4.934331E0,0E0,4.12089E0,0E0,5.9780884E0,6.8788757E0,5.0080376E0,2.8229475E-1,0E0,8.534595E0,5.8291984E0,4.836942E0,6.3874855E0,1.5061071E1,9.146322E0,2.8266668E0,2.0280313E0,7.274334E0,6.069099E0,8.129105E0,1.2419254E1,8.78179E0,6.5393686E0,0E0,0E0,0E0,0E0,0E0,0E0,0E0,0E0,0E0,0E0,0E0,0E0,0E0,0E0,0E0,0E0,0E0,0E0,0E0,0E0,0E0,0E0,0E0,0E0,0E0,0E0,0E0,0E0,0E0,0E0,0E0,0E0,0E0,0E0,0E0,0E0,0E0,0E0,0E0,0E0,0E0,0E0,0E0,0E0,0E0,0E0,0E0,0E0,0E0,0E0,0E0,0E0,0E0,0E0,0E0,0E0],"parents":[2147483647,0,0,1,1,2,2,3,3,4,4,5,5,6,6,7,7,8,8,9,9,10,10,11,11,12,12,13,13,14,14,15,15,16,16,17,17,18,18,19,19,20,20,21,21,22,22,23,23,24,24,25,25,26,26,27,27,28,28,29,29,30,30,31,31,32,32,33,33,34,34,35,35,36,36,37,37,38,38,40,40,42,42,44,44,45,45,46,46,47,47,49,49,50,50,51,51,52,52,53,53,54,54,55,55,56,56,57,57,58,58,59,59,60,60,61,61,62,62],"right_children":[2,4,6,8,10,12,14,16,18,20,22,24,26,28,30,32,34,36,38,40,42,44,46,48,50,52,54,56,58,60,62,64,66,68,70,72,74,76,78,-1,80,-1,82,-1,84,86,88,90,-1,92,94,96,98,100,102,104,106,108,110,112,114,116,118,-1,-1,-1,-1,-1,-1,-1,-1,-1,-1,-1,-1,-1,-1,-1,-1,-1,-1,-1,-1,-1,-1,-1,-1,-1,-1,-1,-1,-1,-1,-1,-1,-1,-1,-1,-1,-1,-1,-1,-1,-1,-1,-1,-1,-1,-1,-1,-1,-1,-1,-1,-1,-1,-1,-1,-1],"split_conditions":[6.58506E1,5.004385E1,9.3787964E1,2.7433132E1,1.4752635E1,7.7653885E1,1.0339723E2,2.322865E1,-4.3265465E1,2.8618816E1,5.7377045E1,-1.70875E2,-1.9840584E1,-1.3930531E2,3.5186646E1,8.449782E0,3.69317E1,9.154052E0,9.954883E1,2.829375E-9,-1.0374405E2,2.7755559E-15,1.0111911E1,7.5925835E1,1.2866026E1,2.6230194E1,1.9255737E1,9.97112E1,3.805037E1,2.912369E1,2.745334E-2,2.2574797E1,2.1205101E1,1.4208317E-6,6.6315674E1,4.173565E1,4.7053037E0,2.5601765E1,2.3828778E0,3.0248725E-1,1.7845242E1,-1.9472997E-1,9.999996E1,3.7639022E-1,1.2808062E1,-1.03875E2,2.5073963E1,2.4534128E1,-1.6654853E-2,3.1081661E1,-4.550216E1,8.17264E0,5.875E0,5.3196024E-2,2.7302786E1,-6.4E1,9.4875E1,1.2391087E1,4.2960518E1,1.5327322E2,1.5625E0,1.2868045E2,-1.9175E2,2.4495308E-1,-8.373533E-2,-9.371568E-2,-7.012986E-2,-1.3206129E-1,-4.8856847E-2,-1.1586947E-1,2.2900326E-2,1.4612973E-1,-3.8512845E-2,2.6303068E-1,-7.2537206E-2,-6.781503E-2,3.0735534E-1,-3.3171646E-2,8.183812E-2,-7.734596E-2,5.0569125E-3,-3.8277753E-2,1.508463E-2,-8.119366E-2,-4.956734E-2,1.6251644E-1,-9.275185E-2,-3.0352086E-2,1.4589592E-3,2.5095344E-1,6.755213E-2,3.498975E-2,-2.4941059E-2,-4.0945787E-2,-7.121007E-3,-2.0822522E-1,-2.1140616E-2,-1.877189E-2,3.433575E-2,-1.4017667E-1,5.599993E-2,-6.3709575E-3,3.3587694E-2,-1.678704E-1,1.511783E-1,3.0389047E-1,4.5368813E-2,-1.3095626E-1,5.6880362E-2,2.2070924E-2,-4.0765516E-2,8.320475E-2,1.783678E-2,-1.891065E-1,5.265303E-2,-1.8297663E-1,5.138037E-2,-1.5232943E-1,1.0087035E-1],"split_indices":[0,0,0,3,4,0,0,4,2,3,0,5,2,2,4,3,2,4,6,6,2,6,3,0,4,3,4,0,6,3,6,4,3,6,2,3,6,4,2,0,3,0,6,0,3,5,3,3,0,3,2,4,5,6,4,5,5,4,2,0,6,0,5,0,0,0,0,0,0,0,0,0,0,0,0,0,0,0,0,0,0,0,0,0,0,0,0,0,0,0,0,0,0,0,0,0,0,0,0,0,0,0,0,0,0,0,0,0,0,0,0,0,0,0,0,0,0,0,0],"split_type":[0,0,0,0,0,0,0,0,0,0,0,0,0,0,0,0,0,0,0,0,0,0,0,0,0,0,0,0,0,0,0,0,0,0,0,0,0,0,0,0,0,0,0,0,0,0,0,0,0,0,0,0,0,0,0,0,0,0,0,0,0,0,0,0,0,0,0,0,0,0,0,0,0,0,0,0,0,0,0,0,0,0,0,0,0,0,0,0,0,0,0,0,0,0,0,0,0,0,0,0,0,0,0,0,0,0,0,0,0,0,0,0,0,0,0,0,0,0,0],"sum_hessian":[3.317661E4,1.7643322E4,1.5533289E4,8.0046445E3,9.638678E3,1.0990942E4,4.542346E3,7.055192E3,9.494526E2,2.009177E3,7.629501E3,5.9979985E3,4.992944E3,1.7427651E3,2.7995813E3,4.5123027E3,2.5428894E3,1.09940765E2,8.395118E2,1.2113761E3,7.978009E2,3.587243E3,4.042258E3,1.2302518E1,5.985696E3,1.915406E3,3.0775378E3,2.9671381E1,1.7130938E3,2.6884863E3,1.11095E2,1.0183752E1,4.502119E3,2.0834033E3,4.5948618E2,4.8814526E1,6.1126244E1,4.276849E2,4.1182687E2,3.4362237E0,1.2079398E3,9.682889E0,7.8811804E2,3.8894148E0,3.5833535E3,2.5412537E2,3.7881326E3,1.089624E1,1.4062778E0,8.973545E2,5.0883413E3,1.0271959E3,8.882101E2,8.205528E2,2.256985E3,1.2363118E1,1.7308262E1,8.110982E2,9.0199554E2,2.172295E3,5.161913E2,5.7475433E1,5.3619568E1,7.253859E0,2.9298928E0,2.5985293E3,1.9035895E3,1.1041004E2,1.9729932E3,4.242691E2,3.521706E1,4.3958115E1,4.8564124E0,5.603538E0,5.5522705E1,4.2598538E2,1.699521E0,3.7210123E2,3.9725655E1,6.837959E1,1.1395603E3,6.2418414E2,1.6393385E2,6.6292145E2,2.9204321E3,8.996709E0,2.4512865E2,3.2726887E3,5.154438E2,9.096293E0,1.7999473E0,5.4788245E2,3.4947202E2,5.0867197E2,4.5796694E3,1.1607771E1,1.01558813E3,3.1528198E2,5.729281E2,3.593787E1,7.846149E2,1.4617467E3,7.952383E2,2.3373384E0,1.002578E1,1.34578E1,3.8504632E0,1.808154E1,7.9301666E2,7.324591E2,1.6953639E2,1.9842268E3,1.8806819E2,1.892177E1,4.972695E2,3.3291718E1,2.4183716E1,1.06614485E1,4.295812E1],"tree_param":{"num_deleted":"0","num_feature":"7","num_nodes":"119","size_leaf_vector":"0"}},{"base_weights":[1.2297251E-1,2.4115005E-1,-1.6245145E-1,3.208968E-1,1.2921797E-1,-5.6337487E-2,-3.6575803E-1,3.6772653E-1,2.7390632E-1,1.7206232E-1,8.54935E-2,3.5091236E-2,-7.561364E-2,-2.956733E-1,-5.3694147E-1,3.9456922E-1,2.8062966E-1,2.8234652E-1,9.539083E-2,1.1163543E0,1.7013243E-1,1.1100554E-1,1.4403954E-2,2.1844065E-2,4.7692955E-1,-8.1718296E-2,1.4857842E-1,-2.5086448E-1,-3.666272E-1,-4.9624813E-1,-5.868726E-1,2.583254E-1,4.1864926E-1,9.4723724E-2,3.401324E-1,1.8895158E-1,2.942386E-1,1.2942718E-1,-2.4636722E-1,2.1617556E-1,1.4027001E-1,2.378131E-1,8.979535E-2,3.4932888E-1,3.4262968E-4,9.2744775E-2,-4.3142885E-2,8.3527243E-1,1.0889125E-1,-3.1738594E-2,-1.0759449E-1,2.5049576E-1,-1.77703E-1,-2.5501037E-1,1.4247411E-1,-1.937832E-1,-3.8869655E-1,-1.7790912E-1,-5.0413746E-1,-5.7758722E-2,-5.9208447E-1,3.6822286E-1,1.5514174E-1,4.2498308E-1,3.188052E-2,5.99749E-2,7.6353E-1,5.8573854E-1,3.0833197E-1,2.0632985E-1,-1.6654558E-1,5.744392E-1,2.9059893E-1,2.277429E-1,2.3453165E-2,-3.7103596E-1,1.689789E-1,1.3815412E-1,2.7690935E-1,2.2679292E-1,1.1069174E-1,-1.6547075E-1,2.6274028E-1,1.7424263E-1,6.4601526E-2,-3.5008764E-1,4.3341392E-1,-2.9331315E-1,1.1662884E-2,7.0118487E-1,7.427979E-2,9.68686E-1,-5.453439E-2,1.0221371E-1,1.0823531E0,3.0325118E-1,-3.1061012E-1,-6.845566E-2,2.1954443E-2,-1.5665078E-1,-7.014393E-2,1.5602894E-1,9.5018435E-1,-3.713425E-1,2.4147284E-1,-2.4732302E-1,-4.641987E-1,3.5790396E-1,-5.132041E-1,-6.2474036E-1,-1.2516183E-1,-3.924074E-1,5.356723E-1,-5.910809E-1,4.27488E-1,-5.793278E-1,-4.7302943E-1,6.9232553E-1,-4.9121475E-1,-4.7679693E-1,-5.9978163E-1],"categories":[],"categories_nodes":[],"categories_segments":[],"categories_sizes":[],"default_left":[true,true,true,true,true,true,true,true,true,true,true,true,true,true,true,true,true,true,true,false,true,true,true,true,true,true,true,true,true,true,true,true,true,true,true,true,true,true,true,true,true,true,true,true,true,true,true,true,true,true,true,true,true,true,true,true,true,true,true,true,true,false,false,false,false,false,false,false,false,false,false,false,false,false,false,false,false,false,false,false,false,false,false,false,false,false,false,false,false,false,false,false,false,false,false,false,false,false,false,false,false,false,false,false,false,false,false,false,false,false,false,false,false,false,false,false,false,false,false,false,false],"id":7,"left_children":[1,3,5,7,9,11,13,15,17,19,21,23,25,27,29,31,33,35,37,-1,39,41,43,45,47,49,51,53,55,57,59,61,63,65,67,69,71,73,75,77,79,81,83,85,87,89,91,93,95,97,99,101,103,105,107,109,111,113,115,117,119,-1,-1,-1,-1,-1,-1,-1,-1,-1,-1,-1,-1,-1,-1,-1,-1,-1,-1,-1,-1,-1,-1,-1,-1,-1,-1,-1,-1,-1,-1,-1,-1,-1,-1,-1,-1,-1,-1,-1,-1,-1,-1,-1,-1,-1,-1,-1,-1,-1,-1,-1,-1,-1,-1,-1,-1,-1,-1,-1,-1],"loss_changes":[1.2042236E3,2.2531995E2,2.2550641E2,3.2341064E1,1.9665909E1,1.2110157E1,4.2850403E1,1.7145386E1,1.1066284E1,9.47818E0,9.431824E0,6.9950895E0,7.77771E0,8.001923E0,1.8221741E0,1.8394165E1,1.9241257E1,7.751953E0,3.9158356E0,0E0,7.2508698E0,1.0273315E1,6.474528E0,5.3631E0,4.4976053E0,7.141041E0,5.0578766E0,2.586029E0,3.6752625E0,1.3658295E0,1.2386932E0,9.577766E0,1.17230835E1,9.804293E0,1.0125122E1,4.9568787E0,6.190674E0,3.1652431E0,1.6464609E0,9.825066E0,8.202854E0,5.5510044E0,6.968605E0,3.4094062E0,4.392826E0,6.2007313E0,7.0554676E0,3.0551548E0,1.5874047E0,3.7194133E0,6.6752625E0,7.4722834E0,3.049758E0,2.3738632E0,2.577862E0,3.273067E0,3.197586E0,4.1449776E0,1.0474854E0,2.1641855E0,1.19522095E-1,0E0,0E0,0E0,0E0,0E0,0E0,0E0,0E0,0E0,0E0,0E0,0E0,0E0,0E0,0E0,0E0,0E0,0E0,0E0,0E0,0E0,0E0,0E0,0E0,0E0,0E0,0E0,0E0,0E0,0E0,0E0,0E0,0E0,0E0,0E0,0E0,0E0,0E0,0E0,0E0,0E0,0E0,0E0,0E0,0E0,0E0,0E0,0E0,0E0,0E0,0E0,0E0,0E0,0E0,0E0,0E0,0E0,0E0,0E0,0E0],"parents":[2147483647,0,0,1,1,2,2,3,3,4,4,5,5,6,6,7,7,8,8,9,9,10,10,11,11,12,12,13,13,14,14,15,15,16,16,17,17,18,18,20,20,21,21,22,22,23,23,24,24,25,25,26,26,27,27,28,28,29,29,30,30,31,31,32,32,33,33,34,34,35,35,36,36,37,37,38,38,39,39,40,40,41,41,42,42,43,43,44,44,45,45,46,46,47,47,48,48,49,49,50,50,51,51,52,52,53,53,54,54,55,55,56,56,57,57,58,58,59,59,60,60],"right_children":[2,4,6,8,10,12,14,16,18,20,22,24,26,28,30,32,34,36,38,-1,40,42,44,46,48,50,52,54,56,58,60,62,64,66,68,70,72,74,76,78,80,82,84,86,88,90,92,94,96,98,100,102,104,106,108,110,112,114,116,118,120,-1,-1,-1,-1,-1,-1,-1,-1,-1,-1,-1,-1,-1,-1,-1,-1,-1,-1,-1,-1,-1,-1,-1,-1,-1,-1,-1,-1,-1,-1,-1,-1,-1,-1,-1,-1,-1,-1,-1,-1,-1,-1,-1,-1,-1,-1,-1,-1,-1,-1,-1,-1,-1,-1,-1,-1,-1,-1,-1,-1],"split_conditions":[7.3003174E1,5.6561016E1,9.38828E1,4.569484E1,6.410997E1,-5.755046E1,1.1608638E2,1.6992538E1,3.1431593E1,-1.0590712E2,9.7901955E1,-5.87807E1,9.99999E1,1.0434038E2,1.3170782E2,-2.0596882E1,3.40486E1,1.3782645E1,1.6816189E1,3.349063E-1,1.8143776E1,-4.315545E1,-8.924251E1,7.2756805E1,1.4100733E1,7.8144775E1,8.615788E1,1.0421231E2,1.1694292E1,9.311209E-8,-3.62125E2,1.3780067E1,3.31126E1,4.2726273E1,1.2525749E-5,7.2407465E0,1.4049387E1,3.423015E1,4.5E1,-2.2375E1,-3.799633E1,-9.8375E1,3.7359234E-2,4.6596785E0,1.381381E1,7.6747026E0,2.063521E1,7.536435E1,4.4509354E1,2.0547363E1,2.0623814E1,3.2138298E1,1.7486832E1,3.4272636E1,2.6133976E1,-1.5351E2,1.16051765E2,3.420337E1,1.7169247E1,1.5131648E2,1.155172E1,1.1046686E-1,4.6542525E-2,1.2749493E-1,9.564157E-3,1.799247E-2,2.2905901E-1,1.7572157E-1,9.249959E-2,6.1898958E-2,-4.996368E-2,1.7233178E-1,8.717968E-2,6.8322875E-2,7.0359497E-3,-1.11310795E-1,5.0693672E-2,4.144624E-2,8.307281E-2,6.8037875E-2,3.3207525E-2,-4.9641225E-2,7.882209E-2,5.2272793E-2,1.9380458E-2,-1.050263E-1,1.3002418E-1,-8.799395E-2,3.4988653E-3,2.1035548E-1,2.2283938E-2,2.906058E-1,-1.6360318E-2,3.0664114E-2,3.2470596E-1,9.097536E-2,-9.318304E-2,-2.0536698E-2,6.5863333E-3,-4.6995237E-2,-2.104318E-2,4.6808682E-2,2.850553E-1,-1.1140276E-1,7.244185E-2,-7.419691E-2,-1.3925962E-1,1.0737119E-1,-1.5396124E-1,-1.8742211E-1,-3.754855E-2,-1.1772222E-1,1.6070169E-1,-1.7732428E-1,1.2824641E-1,-1.7379835E-1,-1.4190884E-1,2.0769767E-1,-1.4736444E-1,-1.4303908E-1,-1.799345E-1],"split_indices":[0,0,0,0,0,2,0,2,3,2,6,2,6,0,0,2,0,4,4,0,3,2,2,6,4,0,0,0,4,6,5,4,4,2,6,2,4,3,5,5,2,5,6,4,3,4,3,0,6,3,4,3,4,4,4,2,0,4,3,0,3,0,0,0,0,0,0,0,0,0,0,0,0,0,0,0,0,0,0,0,0,0,0,0,0,0,0,0,0,0,0,0,0,0,0,0,0,0,0,0,0,0,0,0,0,0,0,0,0,0,0,0,0,0,0,0,0,0,0,0,0],"split_type":[0,0,0,0,0,0,0,0,0,0,0,0,0,0,0,0,0,0,0,0,0,0,0,0,0,0,0,0,0,0,0,0,0,0,0,0,0,0,0,0,0,0,0,0,0,0,0,0,0,0,0,0,0,0,0,0,0,0,0,0,0,0,0,0,0,0,0,0,0,0,0,0,0,0,0,0,0,0,0,0,0,0,0,0,0,0,0,0,0,0,0,0,0,0,0,0,0,0,0,0,0,0,0,0,0,0,0,0,0,0,0,0,0,0,0,0,0,0,0,0,0],"sum_hessian":[3.5698953E4,2.524614E4,1.0452812E4,1.4741556E4,1.0504585E4,6.8689204E3,3.583891E3,7.3799883E3,7.361567E3,5.304208E3,5.2003765E3,1.195887E3,5.673033E3,2.5447603E3,1.0391307E3,5.6386597E3,1.7413289E3,7.0286704E3,3.3289648E2,9.6405735E0,5.2945674E3,3.8265671E3,1.3738093E3,1.1620946E3,3.3792416E1,5.5232725E3,1.4976088E2,1.562528E3,9.822323E2,5.785542E2,4.6057657E2,8.486662E2,4.7899937E3,4.2283765E2,1.3184911E3,7.957905E2,6.23288E3,3.033105E2,2.9585993E1,2.0805112E3,3.2140564E3,5.468642E2,3.279703E3,5.439272E1,1.3194166E3,5.5555615E2,6.0653845E2,1.6478495E1,1.731392E1,1.8848755E3,3.638397E3,1.1429266E2,3.5468212E1,1.5465782E3,1.5949657E1,1.1232213E2,8.6991016E2,1.4560911E1,5.639933E2,4.610412E0,4.5596616E2,4.0971924E2,4.3894696E2,4.7127183E3,7.727549E1,4.029894E2,1.984824E1,1.4914795E2,1.1693431E3,7.5910187E2,3.668865E1,7.791328E1,6.154967E3,1.5674435E2,1.4656615E2,2.2837774E1,6.7482185E0,9.1208276E2,1.1684285E3,8.171234E2,2.3969329E3,3.1506056E1,5.1535815E2,7.5226544E2,2.5274375E3,5.4978995E0,4.889482E1,4.8050133E1,1.2713665E3,1.5274424E1,5.4028174E2,5.8170176E0,6.0072144E2,4.5103917E0,1.1968102E1,1.2021385E1,5.2925344E0,1.1192325E3,7.656429E2,1.5737576E3,2.0646394E3,1.0177478E2,1.2517885E1,2.43389E1,1.1129314E1,1.4938634E3,5.271486E1,1.2347053E1,3.6026044E0,1.4315227E1,9.80069E1,8.670051E2,2.905065E0,8.668486E0,5.8924255E0,1.5989401E2,4.0409927E2,1.469778E0,3.140634E0,3.2476612E1,4.2348956E2],"tree_param":{"num_deleted":"0","num_feature":"7","num_nodes":"121","size_leaf_vector":"0"}},{"base_weights":[-6.64983E-2,-1.3654743E-1,6.4796634E-2,-1.8503943E-1,-7.58988E-2,5.583993E-2,3.0634937E-1,-1.9955714E-1,-9.0288416E-2,-1.216049E-1,-5.0651018E-2,4.71746E-2,2.6874474E-1,3.2624707E-1,-3.8629928E-1,-2.3482533E-1,-1.66343E-1,2.5452873E-1,-1.0549746E-1,1.8696687E-1,-1.3069671E-1,-1.678658E-1,-3.8665686E-2,7.923035E-1,4.5826532E-2,3.6472732E-1,1.0462107E-1,3.3805346E-1,-5.6206477E-1,3.3723062E-1,-5.1478857E-1,-2.1163613E-1,-3.0065456E-1,-1.459024E-1,-2.1454613E-1,1.035228E0,3.722437E-2,-3.6936092E-1,-8.799698E-2,9.940798E-1,4.0009677E-2,-1.2662798E-1,-7.118943E-1,-1.9170573E-1,2.6021212E-1,-1.937578E-2,-1.2612727E-1,3.4937177E-2,1.1346694E0,1.6680397E-2,7.747017E-2,-3.3398025E-2,4.0779784E-1,-1.2755391E-1,2.7242765E-1,2.3980694E-1,4.648543E-1,-5.7520084E-2,-5.9185624E-1,-8.6179286E-2,-2.3112117E-1,-1.8195745E-1,-3.63775E-1,-1.6010538E-1,1.4077117E-1,-1.7632945E-1,-2.5825277E-1,3.436357E-1,1.272439E0,4.7962144E-1,-2.0310397E-1,-5.1789415E-1,-1.4507021E-1,-1.2766705E-1,8.582921E-2,-4.090221E-1,1.1544173E0,-5.709427E-1,1.5376297E-1,-5.5158056E-2,-1.5417755E-1,-2.4941283E-1,1.2423431E-2,7.2432345E-1,-1.6558105E-1,3.5672438E-1,-2.444594E-2,-2.0728177E-1,2.0431794E-2,7.9689634E-1,-2.9424074E-1,3.9002505E-1,1.1882889E0,3.8501598E-2,-4.095414E-2,5.2484054E-2,1.3020414E-1,7.175173E-1,-2.9255033E-1,4.254637E-1,-6.65435E-1,2.3064333E-1,-3.0861777E-1,-4.9743302E-2,5.2838194E-1,2.6108405E-1,-4.4208887E-1,6.6140735E-1,2.9927847E-1],"categories":[],"categories_nodes":[],"categories_segments":[],"categories_sizes":[],"default_left":[true,true,true,true,true,true,true,true,true,true,true,true,true,true,true,true,true,true,true,true,true,true,true,true,true,true,true,true,false,false,true,true,true,true,true,true,true,true,true,true,true,true,false,true,true,true,true,true,true,true,true,true,true,true,true,true,true,false,false,false,false,false,false,false,false,false,false,false,false,false,false,false,false,false,false,false,false,false,false,false,false,false,false,false,false,false,false,false,false,false,false,false,false,false,false,false,false,false,false,false,false,false,false,false,false,false,false,false,false],"id":8,"left_children":[1,3,5,7,9,11,13,15,17,19,21,23,25,27,29,31,33,35,37,39,41,43,45,47,49,51,53,55,-1,-1,57,59,61,63,65,67,69,71,73,75,77,79,-1,81,83,85,87,89,91,93,95,97,99,101,103,105,107,-1,-1,-1,-1,-1,-1,-1,-1,-1,-1,-1,-1,-1,-1,-1,-1,-1,-1,-1,-1,-1,-1,-1,-1,-1,-1,-1,-1,-1,-1,-1,-1,-1,-1,-1,-1,-1,-1,-1,-1,-1,-1,-1,-1,-1,-1,-1,-1,-1,-1,-1,-1],"loss_changes":[3.0527502E2,6.3641266E1,2.4967796E1,1.6525757E1,1.1093281E1,2.0533142E1,5.813553E0,1.2176453E1,8.41647E0,9.624336E0,8.700221E0,1.0713974E1,6.819538E0,4.402855E0,1.2874906E0,7.653351E0,5.2635956E0,1.1476108E1,7.045906E0,1.1625339E1,7.7714157E0,5.91411E0,9.48587E0,4.9559507E0,9.852467E0,4.716873E0,6.3480287E0,4.8348465E0,0E0,0E0,3.3847046E-1,9.126877E0,9.782379E0,1.5400162E1,2.6238098E0,1.9811106E0,5.8527412E0,3.0907593E0,9.932789E0,3.870739E0,5.9423485E0,6.4942017E0,0E0,6.42169E0,6.1940737E0,8.797354E0,1.2089201E1,1.9976436E0,6.5029144E-2,6.997601E0,6.742342E0,5.6004453E0,4.9771767E0,4.5244927E0,7.808885E0,3.3911924E0,5.4084625E0,0E0,0E0,0E0,0E0,0E0,0E0,0E0,0E0,0E0,0E0,0E0,0E0,0E0,0E0,0E0,0E0,0E0,0E0,0E0,0E0,0E0,0E0,0E0,0E0,0E0,0E0,0E0,0E0,0E0,0E0,0E0,0E0,0E0,0E0,0E0,0E0,0E0,0E0,0E0,0E0,0E0,0E0,0E0,0E0,0E0,0E0,0E0,0E0,0E0,0E0,0E0,0E0],"parents":[2147483647,0,0,1,1,2,2,3,3,4,4,5,5,6,6,7,7,8,8,9,9,10,10,11,11,12,12,13,13,14,14,15,15,16,16,17,17,18,18,19,19,20,20,21,21,22,22,23,23,24,24,25,25,26,26,27,27,30,30,31,31,32,32,33,33,34,34,35,35,36,36,37,37,38,38,39,39,40,40,41,41,43,43,44,44,45,45,46,46,47,47,48,48,49,49,50,50,51,51,52,52,53,53,54,54,55,55,56,56],"right_children":[2,4,6,8,10,12,14,16,18,20,22,24,26,28,30,32,34,36,38,40,42,44,46,48,50,52,54,56,-1,-1,58,60,62,64,66,68,70,72,74,76,78,80,-1,82,84,86,88,90,92,94,96,98,100,102,104,106,108,-1,-1,-1,-1,-1,-1,-1,-1,-1,-1,-1,-1,-1,-1,-1,-1,-1,-1,-1,-1,-1,-1,-1,-1,-1,-1,-1,-1,-1,-1,-1,-1,-1,-1,-1,-1,-1,-1,-1,-1,-1,-1,-1,-1,-1,-1,-1,-1,-1,-1,-1,-1],"split_conditions":[7.300729E1,5.650803E1,1.1787731E2,3.223548E1,7.98787E0,1.3745078E2,2.4357825E2,4.488063E1,3.9683323E-9,5.999538E-9,1.0265829E1,7.767942E-11,8.750009E1,9.997778E1,2.8222292E1,9.9177704E1,9.765517E1,4.0260086E1,6.594821E0,8.14336E0,1.0421678E2,-1.9415947E1,3.5324028E1,7.9028625E1,8.7758896E1,2.0290744E-4,-9.83174E1,1.4895676E2,-1.6861944E-1,1.0116919E-1,-1.74E2,-1.6767996E1,3.445117E1,2.9071018E1,5.1493046E1,3.1002285E1,2.723985E1,4.9207603E1,5.736757E1,5.909144E1,-2.266107E0,1.330737E1,-2.1356829E-1,3.5907104E1,3.25E1,-9.2125E1,2.6211145E1,2.217876E1,-1.18625E2,2.956018E1,1.8840073E1,-2.1240366E1,4.534508E1,1.5118785E2,1.4989827E2,1.4721075E2,1.7534424E2,-1.7256025E-2,-1.7755687E-1,-2.5853787E-2,-6.9336355E-2,-5.4587238E-2,-1.09132506E-1,-4.8031617E-2,4.223135E-2,-5.2898835E-2,-7.747583E-2,1.0309072E-1,3.8173172E-1,1.4388643E-1,-6.0931195E-2,-1.5536825E-1,-4.3521065E-2,-3.830012E-2,2.5748765E-2,-1.2270663E-1,3.463252E-1,-1.7128281E-1,4.612889E-2,-1.6547417E-2,-4.6253264E-2,-7.482386E-2,3.7270293E-3,2.1729705E-1,-4.9674317E-2,1.07017316E-1,-7.333782E-3,-6.218453E-2,6.1295386E-3,2.3906891E-1,-8.827223E-2,1.1700752E-1,3.5648668E-1,1.155048E-2,-1.2286242E-2,1.5745217E-2,3.9061245E-2,2.152552E-1,-8.77651E-2,1.2763911E-1,-1.9963051E-1,6.9193006E-2,-9.258533E-2,-1.4922991E-2,1.5851459E-1,7.832522E-2,-1.3262667E-1,1.9842221E-1,8.978354E-2],"split_indices":[0,0,2,2,6,0,2,0,6,6,4,6,6,6,4,6,6,0,3,3,2,2,2,0,0,6,2,2,0,0,5,2,0,3,0,4,4,0,2,0,2,3,0,3,5,5,4,4,5,2,2,2,3,0,0,2,2,0,0,0,0,0,0,0,0,0,0,0,0,0,0,0,0,0,0,0,0,0,0,0,0,0,0,0,0,0,0,0,0,0,0,0,0,0,0,0,0,0,0,0,0,0,0,0,0,0,0,0,0],"split_type":[0,0,0,0,0,0,0,0,0,0,0,0,0,0,0,0,0,0,0,0,0,0,0,0,0,0,0,0,0,0,0,0,0,0,0,0,0,0,0,0,0,0,0,0,0,0,0,0,0,0,0,0,0,0,0,0,0,0,0,0,0,0,0,0,0,0,0,0,0,0,0,0,0,0,0,0,0,0,0,0,0,0,0,0,0,0,0,0,0,0,0,0,0,0,0,0,0,0,0,0,0,0,0,0,0,0,0,0,0],"sum_hessian":[3.319058E4,2.1643299E4,1.154728E4,1.2025881E4,9.617418E3,1.1135606E4,4.1167392E2,1.0427134E4,1.5987474E3,3.4208428E3,6.1965747E3,1.070128E4,4.3432587E2,4.0069223E2,1.0981695E1,5.0542466E3,5.3728867E3,6.687319E1,1.5318743E3,9.7347595E1,3.323495E3,5.7362274E2,5.622952E3,1.826595E1,1.0683015E4,2.732827E2,1.6104314E2,3.9604788E2,4.6443567E0,1.4111053E0,9.57059E0,3.7407383E3,1.3135085E3,3.7757854E3,1.5971012E3,1.3741344E1,5.3131844E1,9.403006E1,1.4378441E3,1.4106726E1,8.324087E1,3.3015999E3,2.1895325E1,5.4388556E2,2.973717E1,4.60789E3,1.01506195E3,6.029596E0,1.2236353E1,5.5617544E3,5.1212603E3,2.6700388E1,2.4658234E2,6.7663994E1,9.337914E1,2.2477849E2,1.7126938E2,1.632251E0,7.938339E0,5.0360953E2,3.2371287E3,4.5735028E2,8.5615826E2,3.597969E3,1.7781653E2,8.547501E2,7.423511E2,4.1348305E0,9.606514E0,1.8352613E1,3.4779232E1,5.5780926E1,3.824913E1,1.1708923E3,2.6695178E2,1.2876431E0,1.2819082E1,1.2435024E1,7.080584E1,9.194186E2,2.3821812E3,4.2384357E2,1.20041985E2,1.38928995E1,1.5844271E1,6.0369534E1,4.5475205E3,6.530389E2,3.6202304E2,1.3903766E0,4.6392193E0,1.3776786E0,1.0858674E1,4.0345515E3,1.5272028E3,3.4761877E3,1.6450725E3,6.396703E0,2.0303686E1,2.43183E2,3.3993263E0,2.262712E1,4.5036877E1,4.1698586E1,5.168056E1,2.1857542E2,6.2030644E0,7.694012E1,9.432926E1],"tree_param":{"num_deleted":"0","num_feature":"7","num_nodes":"109","size_leaf_vector":"0"}},{"base_weights":[-5.0338164E-2,-1.5675525E-1,2.5225995E-2,-1.9297238E-1,-1.14373066E-1,-1.3014341E-2,1.3664857E-1,-2.1843684E-1,-1.2171894E-1,-5.9179883E-2,-1.449352E-1,-4.3385047E-2,1.1860055E-2,8.249787E-2,1.7524868E-1,-2.7179888E-1,-1.786022E-1,-1.288968E-1,5.3795105E-1,-1.4040141E-1,-3.2238394E-2,-1.535269E-1,6.862745E-2,-4.9597263E-2,1.20384164E-1,-1.2126883E-1,1.9988112E-2,6.930311E-1,7.749378E-2,1.831077E-1,-1.15725845E-1,-1.1679753E-1,-2.9856652E-1,-3.6640176E-1,-1.6097042E-1,-2.4869608E-2,-1.6974314E-1,2.8254977E-1,1.0348394E0,1.0631881E-1,-1.8344863E-1,-1.6144903E-1,-6.9060437E-3,6.892108E-1,-1.5524703E-1,-7.703654E-2,3.4215498E-1,-5.827244E-2,8.2806505E-2,-4.830262E-1,1.8919086E-1,-1.4499898E-1,3.390177E-1,1.567554E-2,2.4915496E-1,1.7882812E-1,7.3285633E-1,9.331686E-1,7.4588634E-2,1.1951072E0,1.8120898E-1,-1.7618635E-1,7.9314816E-1,2.7417026E-2,-1.968881E-1,-3.1872645E-1,-2.091834E-1,9.110421E-1,-3.7936172E-1,6.213812E-2,-1.7527401E-1,4.8128983E-1,-4.3757983E-2,-1.00103945E-1,-2.1584156E-1,8.5961527E-1,-3.4390277E-1,1.2531611E0,4.5712754E-2,1.8800837E-1,-6.146554E-1,9.9699445E-2,-2.1597092E-1,3.215985E-1,-2.1291576E-1,-1.3645607E-3,-5.8742946E-1,1.0095499E0,-4.075555E-1,3.0869243E-1,-1.5813704E-1,-2.8708792E-1,7.792197E-2,1.4116973E-1,8.5163546E-1,-8.798639E-2,-2.726989E-2,-3.2612777E-1,1.2401708E-1,-5.50451E-1,1.4622878E-1,1.11635916E-1,8.129349E-1,1.6652077E-1,-1.7643838E-1,1.0891277E0,1.8153122E-1,2.2486638E-2,-1.3710886E-1,3.4534377E-1,-1.13896824E-1,8.5251796E-1,3.6744168E-1,3.2890397E-1,1.034454E0,8.317309E-2,-1.8368487E-1,1.8964097E-1,-4.1954085E-2,-3.1950036E-1,1.0591016E-1],"categories":[],"categories_nodes":[],"categories_segments":[],"categories_sizes":[],"default_left":[true,true,true,true,true,true,true,true,true,true,true,true,true,true,true,true,true,true,true,true,true,true,true,true,true,true,true,true,true,true,true,true,true,true,true,true,true,true,true,true,true,true,true,true,true,true,true,true,true,true,true,true,true,true,true,false,true,true,true,false,true,true,false,false,false,false,false,false,false,false,false,false,false,false,false,false,false,false,false,false,false,false,false,false,false,false,false,false,false,false,false,false,false,false,false,false,false,false,false,false,false,false,false,false,false,false,false,false,false,false,false,false,false,false,false,false,false,false,false,false,false],"id":9,"left_children":[1,3,5,7,9,11,13,15,17,19,21,23,25,27,29,31,33,35,37,39,41,43,45,47,49,51,53,55,57,59,61,63,65,67,69,71,73,75,77,79,81,83,85,87,89,91,93,95,97,99,101,103,105,107,109,-1,111,113,115,-1,117,119,-1,-1,-1,-1,-1,-1,-1,-1,-1,-1,-1,-1,-1,-1,-1,-1,-1,-1,-1,-1,-1,-1,-1,-1,-1,-1,-1,-1,-1,-1,-1,-1,-1,-1,-1,-1,-1,-1,-1,-1,-1,-1,-1,-1,-1,-1,-1,-1,-1,-1,-1,-1,-1,-1,-1,-1,-1,-1,-1],"loss_changes":[2.6172308E2,2.0722229E1,8.109927E1,1.3193054E1,1.0499847E1,1.0706017E1,1.0150848E1,1.1358429E1,9.163021E0,4.8574634E0,7.366188E0,6.497571E0,8.433122E0,6.1355553E0,6.512047E0,9.473801E0,1.0124855E1,8.0718975E0,2.3555574E0,5.8941298E0,5.464327E0,5.6939774E0,6.231133E0,7.066902E0,9.785419E0,4.9474792E0,7.2539115E0,2.036295E-1,4.9281893E0,5.094818E0,4.2753887E0,3.9224877E0,3.45372E0,4.7027855E0,8.989021E0,5.1555495E0,4.3591156E0,5.7750354E0,1.3913383E0,4.9924765E0,4.3618174E0,6.8718295E0,4.493592E0,3.2342668E0,5.2069244E0,3.3564565E0,5.4397974E0,5.3137074E0,6.418764E0,1.106411E0,1.0082659E1,4.213064E0,2.4350076E0,7.505158E0,4.773938E0,0E0,3.3589888E-1,7.0800304E-2,4.460141E0,0E0,5.20179E0,2.9198036E0,0E0,0E0,0E0,0E0,0E0,0E0,0E0,0E0,0E0,0E0,0E0,0E0,0E0,0E0,0E0,0E0,0E0,0E0,0E0,0E0,0E0,0E0,0E0,0E0,0E0,0E0,0E0,0E0,0E0,0E0,0E0,0E0,0E0,0E0,0E0,0E0,0E0,0E0,0E0,0E0,0E0,0E0,0E0,0E0,0E0,0E0,0E0,0E0,0E0,0E0,0E0,0E0,0E0,0E0,0E0,0E0,0E0,0E0,0E0],"parents":[2147483647,0,0,1,1,2,2,3,3,4,4,5,5,6,6,7,7,8,8,9,9,10,10,11,11,12,12,13,13,14,14,15,15,16,16,17,17,18,18,19,19,20,20,21,21,22,22,23,23,24,24,25,25,26,26,27,27,28,28,29,29,30,30,31,31,32,32,33,33,34,34,35,35,36,36,37,37,38,38,39,39,40,40,41,41,42,42,43,43,44,44,45,45,46,46,47,47,48,48,49,49,50,50,51,51,52,52,53,53,54,54,56,56,57,57,58,58,60,60,61,61],"right_children":[2,4,6,8,10,12,14,16,18,20,22,24,26,28,30,32,34,36,38,40,42,44,46,48,50,52,54,56,58,60,62,64,66,68,70,72,74,76,78,80,82,84,86,88,90,92,94,96,98,100,102,104,106,108,110,-1,112,114,116,-1,118,120,-1,-1,-1,-1,-1,-1,-1,-1,-1,-1,-1,-1,-1,-1,-1,-1,-1,-1,-1,-1,-1,-1,-1,-1,-1,-1,-1,-1,-1,-1,-1,-1,-1,-1,-1,-1,-1,-1,-1,-1,-1,-1,-1,-1,-1,-1,-1,-1,-1,-1,-1,-1,-1,-1,-1,-1,-1,-1,-1],"split_conditions":[6.003141E1,4.951184E1,9.259688E1,2.340644E1,1.7686281E1,7.114285E1,1.0339723E2,4.458993E0,2.5390488E1,5E1,9.998939E1,9.999999E1,1.0327474E1,-1.5108679E2,3.703627E1,1.8092659E-1,1.4807975E-5,-2.500526E1,4.6308254E1,1.7742088E1,5.1476765E1,2.7755559E-15,1.4292258E1,5E-1,-3.55E1,9.072124E1,9.83562E1,2.8232029E1,-2.315E2,1.876069E-10,1.6605179E2,3.7588295E1,9.970944E1,1.54033375E1,2.7872154E1,-6.113604E1,3.85476E1,3.9589455E1,3.8E1,5.9075966E1,-5.975E1,1.8842098E1,5.9958847E1,5.794639E1,4.95778E1,5.437323E1,9.99998E1,2.0529556E1,8.176506E0,3.3881058E1,-8.9730465E-1,3.2454437E1,1.924377E-6,7.290375E1,1.7439598E1,5.364844E-2,7.2E1,-2.845E2,1.1969303E2,3.585322E-1,1.4408286E2,1.9531226E-1,2.3794445E-1,8.2251085E-3,-5.9066433E-2,-9.561794E-2,-6.275502E-2,2.7331263E-1,-1.1380852E-1,1.8641436E-2,-5.2582208E-2,1.4438696E-1,-1.3127395E-2,-3.0031184E-2,-6.4752474E-2,2.578846E-1,-1.03170834E-1,3.7594834E-1,1.3713826E-2,5.6402512E-2,-1.8439662E-1,2.9909834E-2,-6.479128E-2,9.647956E-2,-6.387473E-2,-4.0936822E-4,-1.7622885E-1,3.0286497E-1,-1.2226665E-1,9.260773E-2,-4.7441114E-2,-8.612638E-2,2.3376592E-2,4.2350918E-2,2.5549066E-1,-2.6395917E-2,-8.1809675E-3,-9.7838335E-2,3.7205126E-2,-1.651353E-1,4.3868635E-2,3.3490777E-2,2.4388047E-1,4.9956236E-2,-5.2931514E-2,3.267383E-1,5.4459367E-2,6.7459918E-3,-4.113266E-2,1.0360313E-1,-3.4169048E-2,2.557554E-1,1.1023251E-1,9.86712E-2,3.103362E-1,2.4951927E-2,-5.5105463E-2,5.6892294E-2,-1.2586226E-2,-9.585011E-2,3.177305E-2],"split_indices":[0,0,0,3,4,0,0,2,4,6,6,6,3,2,4,6,6,2,0,3,0,6,2,1,5,0,2,3,5,6,0,0,6,4,0,2,0,0,5,0,5,3,0,0,0,0,6,3,3,3,2,2,6,2,3,0,5,5,2,0,2,6,0,0,0,0,0,0,0,0,0,0,0,0,0,0,0,0,0,0,0,0,0,0,0,0,0,0,0,0,0,0,0,0,0,0,0,0,0,0,0,0,0,0,0,0,0,0,0,0,0,0,0,0,0,0,0,0,0,0,0],"split_type":[0,0,0,0,0,0,0,0,0,0,0,0,0,0,0,0,0,0,0,0,0,0,0,0,0,0,0,0,0,0,0,0,0,0,0,0,0,0,0,0,0,0,0,0,0,0,0,0,0,0,0,0,0,0,0,0,0,0,0,0,0,0,0,0,0,0,0,0,0,0,0,0,0,0,0,0,0,0,0,0,0,0,0,0,0,0,0,0,0,0,0,0,0,0,0,0,0,0,0,0,0,0,0,0,0,0,0,0,0,0,0,0,0,0,0,0,0,0,0,0,0],"sum_hessian":[3.2545793E4,1.3513558E4,1.9032234E4,7.284843E3,6.228715E3,1.416997E4,4.862264E3,5.3653247E3,1.919518E3,2.220884E3,4.0078308E3,6.3797676E3,7.790202E3,2.0248347E3,2.8374297E3,2.290787E3,3.0745378E3,1.8996525E3,1.9865469E1,5.521339E2,1.6687501E3,3.8531008E3,1.5473018E2,6.1472817E3,2.3248613E2,4.4745462E2,7.3427476E3,1.5343403E1,2.0094913E3,2.763169E3,7.426064E1,3.3813535E2,1.9526517E3,2.6218387E2,2.8123538E3,5.360507E2,1.3636018E3,1.4157258E1,5.708211E0,8.180547E1,4.703284E2,2.7265714E2,1.396093E3,7.034503E0,3.8460662E3,1.01432045E2,5.3298126E1,5.769801E3,3.77481E2,2.3180588E1,2.0930554E2,4.261684E2,2.128621E1,7.2081694E3,1.3457843E2,1.4975926E0,1.3845811E1,5.7159433E0,2.0037754E3,3.997731E0,2.7591711E3,7.0384636E1,3.8760083E0,1.2096972E2,2.1716563E2,1.5911989E3,3.6145285E2,1.9372294E0,2.6024664E2,1.6923701E2,2.643117E3,1.8403517E1,5.176472E2,5.4438727E2,8.192145E2,7.17537E0,6.981888E0,4.4574237E0,1.2507874E0,7.4143875E1,7.6615987E0,4.8243282E1,4.2208514E2,2.5747934E1,2.4690921E2,1.3838853E3,1.2207757E1,5.505887E0,1.528616E0,2.3154898E1,3.8229114E3,4.2699196E1,5.873285E1,3.9136307E1,1.416182E1,2.945189E3,2.8246116E3,3.392528E1,3.435557E2,2.105028E1,2.130307E0,1.8720755E2,2.2097998E1,3.8673386E1,3.8749503E2,2.6670983E0,1.8619112E1,6.901361E3,3.0680847E2,1.0642928E2,2.8149145E1,9.426062E0,4.419749E0,1.430275E0,4.2856684E0,1.9399729E3,6.380256E1,2.6588591E3,1.00312126E2,4.658525E1,2.3799381E1],"tree_param":{"num_deleted":"0","num_feature":"7","num_nodes":"121","size_leaf_vector":"0"}},{"base_weights":[9.180404E-2,1.8002352E-1,-1.3726619E-1,2.3865002E-1,9.323379E-2,-7.2684675E-2,-3.9166638E-1,2.695887E-1,1.9215485E-1,1.2460296E-1,5.9628695E-2,-4.199372E-2,-1.9790463E-1,-3.0650494E-1,-4.9617356E-1,2.8087044E-1,1.1248802E-1,1.9720227E-1,3.4999377E-3,9.486935E-1,1.2307128E-1,7.618568E-2,-2.4348425E-2,1.8849825E-2,-6.3821234E-2,-1.6555344E-1,-2.4740417E-1,-2.8353533E-1,-4.8498452E-1,-4.703784E-1,-5.952302E-1,2.9449525E-1,1.2653224E-1,-3.4359303E-1,1.43405E-1,1.9292042E-1,3.8242418E-1,6.4889956E-1,-4.2781506E-2,1.0432718E0,2.5191757E-1,8.7823105E-1,1.214971E-1,1.2910385E-1,3.8945097E-2,1.3487281E-1,-7.986386E-2,-3.1277648E-1,2.4897557E-2,-8.325234E-2,-8.423416E-3,-1.727579E-1,4.961155E-1,-2.6061723E-1,6.9803965E-1,3.4501243E-1,-2.9165974E-1,-5.830937E-1,-3.6601985E-1,6.2768036E-1,-4.735497E-1,3.402013E-1,2.6100224E-1,4.7543433E-1,1.012761E-1,-6.376163E-1,1.6128899E-1,4.824879E-1,1.10742986E-1,2.0639223E-1,1.33747E-1,-6.720342E-1,4.1518712E-1,-2.8300345E-1,9.8939925E-1,1.09717E-2,-4.7564313E-1,1.71158E-1,9.809533E-2,2.1591045E-1,7.49899E-2,-3.234291E-2,8.588449E-2,9.3650115E-1,1.0836042E-1,-6.053004E-2,-3.2641783E-1,2.3977904E-2,-6.5049565E-1,1.497885E-1,9.830548E-3,-5.494506E-2,-1.4761034E-1,-4.8296437E-1,2.06493E-3,-2.0774743E-1,-8.701846E-2,-5.1527643E-1,8.8737E-1,-3.7446782E-1,-1.9326524E-1,-5.4172325E-1,1.2260249E0,9.7900593E-1,-1.3245116E-1,-7.874107E-2,-3.112171E-1,9.227815E-2,-5.975943E-1,-1.9872701E-1,-5.6547284E-1,-4.8476034E-1,-2.7004242E-1],"categories":[],"categories_nodes":[],"categories_segments":[],"categories_sizes":[],"default_left":[true,true,true,true,true,true,true,true,true,true,true,true,true,true,true,true,true,true,true,true,true,true,true,true,true,true,true,true,true,true,false,true,true,true,true,true,true,true,true,false,false,false,true,true,true,true,true,true,true,true,true,true,true,true,true,true,true,true,true,false,true,false,false,false,false,false,false,false,false,false,false,false,false,false,false,false,false,false,false,false,false,false,false,false,false,false,false,false,false,false,false,false,false,false,false,false,false,false,false,false,false,false,false,false,false,false,false,false,false,false,false,false,false],"id":10,"left_children":[1,3,5,7,9,11,13,15,17,19,21,23,25,27,29,31,33,35,37,39,41,43,45,47,49,51,53,55,57,59,-1,61,63,65,67,69,71,73,75,-1,-1,-1,77,79,81,83,85,87,89,91,93,95,97,99,101,103,105,107,109,-1,111,-1,-1,-1,-1,-1,-1,-1,-1,-1,-1,-1,-1,-1,-1,-1,-1,-1,-1,-1,-1,-1,-1,-1,-1,-1,-1,-1,-1,-1,-1,-1,-1,-1,-1,-1,-1,-1,-1,-1,-1,-1,-1,-1,-1,-1,-1,-1,-1,-1,-1,-1,-1],"loss_changes":[7.196449E2,1.3079126E2,1.626497E2,2.2019958E1,1.0920761E1,3.0345043E1,1.768753E1,1.629303E1,5.8402405E0,6.649872E0,6.9634743E0,8.427282E0,2.4483147E0,4.401039E0,2.015564E0,1.8031921E1,8.774538E0,4.664276E0,4.832523E0,3.827486E-1,6.2555313E0,8.23753E0,7.306179E0,3.369023E0,5.0259533E0,4.581394E0,7.8318253E0,5.121666E0,1.2434464E0,2.7959137E0,0E0,1.1997131E1,6.109474E0,5.978063E0,6.3724327E0,4.628845E0,4.907261E0,3.7148972E0,3.5193553E0,0E0,0E0,0E0,6.1914597E0,8.097206E0,8.222266E0,4.441289E0,2.9003894E0,3.4376512E0,3.097453E0,6.2898293E0,6.041818E0,2.7829342E0,4.5791125E0,4.5642166E0,6.366927E0,4.066422E0,4.0198593E0,7.0856667E-1,1.8596592E0,0E0,1.5027161E0,0E0,0E0,0E0,0E0,0E0,0E0,0E0,0E0,0E0,0E0,0E0,0E0,0E0,0E0,0E0,0E0,0E0,0E0,0E0,0E0,0E0,0E0,0E0,0E0,0E0,0E0,0E0,0E0,0E0,0E0,0E0,0E0,0E0,0E0,0E0,0E0,0E0,0E0,0E0,0E0,0E0,0E0,0E0,0E0,0E0,0E0,0E0,0E0,0E0,0E0,0E0,0E0],"parents":[2147483647,0,0,1,1,2,2,3,3,4,4,5,5,6,6,7,7,8,8,9,9,10,10,11,11,12,12,13,13,14,14,15,15,16,16,17,17,18,18,19,19,20,20,21,21,22,22,23,23,24,24,25,25,26,26,27,27,28,28,29,29,31,31,32,32,33,33,34,34,35,35,36,36,37,37,38,38,42,42,43,43,44,44,45,45,46,46,47,47,48,48,49,49,50,50,51,51,52,52,53,53,54,54,55,55,56,56,57,57,58,58,60,60],"right_children":[2,4,6,8,10,12,14,16,18,20,22,24,26,28,30,32,34,36,38,40,42,44,46,48,50,52,54,56,58,60,-1,62,64,66,68,70,72,74,76,-1,-1,-1,78,80,82,84,86,88,90,92,94,96,98,100,102,104,106,108,110,-1,112,-1,-1,-1,-1,-1,-1,-1,-1,-1,-1,-1,-1,-1,-1,-1,-1,-1,-1,-1,-1,-1,-1,-1,-1,-1,-1,-1,-1,-1,-1,-1,-1,-1,-1,-1,-1,-1,-1,-1,-1,-1,-1,-1,-1,-1,-1,-1,-1,-1,-1,-1,-1],"split_conditions":[7.338794E1,5.717369E1,1.0251009E2,4.8594055E1,6.480054E1,9.255575E1,1.1642055E2,3.0984543E1,3.356081E1,4.297385E0,2.7571323E1,-4.0494553E1,8.347351E0,2.938494E1,1.5177396E2,2.9156807E1,1.5242966E-8,8.0625E1,5.312416E0,1.0178732E2,-1.0590712E2,-2.1698308E0,-6.6542755E1,7.3679115E1,4.601322E1,7.8581257E0,9.999968E1,4.5502493E-5,1.09802704E2,-3.61125E2,-1.7856908E-1,1.89303E1,2.7258305E1,4.257415E1,-6.3875E1,3.2375E1,8.972677E0,5.2422432E1,5.635826E1,3.1298155E-1,7.557528E-2,2.6346934E-1,3.7560024E0,2.0583706E1,2.2372135E1,-1.1869648E2,9.999997E1,1.6125E1,8.097594E0,1.7865833E1,1.4551912E-9,1.9716919E1,-4.5375E1,2.2793121E1,1.4926241E1,1.7457321E1,-1.18625E2,1.0269531E2,-5.9E1,1.8830411E-1,3.434516E1,1.0206039E-1,7.830068E-2,1.4263031E-1,3.038283E-2,-1.912849E-1,4.83867E-2,1.4474638E-1,3.32229E-2,6.191767E-2,4.01241E-2,-2.0161027E-1,1.2455614E-1,-8.4901035E-2,2.9681978E-1,3.29151E-3,-1.4269294E-1,5.13474E-2,2.94286E-2,6.4773135E-2,2.249697E-2,-9.702873E-3,2.5765348E-2,2.8095037E-1,3.2508127E-2,-1.8159013E-2,-9.792536E-2,7.193371E-3,-1.951487E-1,4.4936553E-2,2.9491647E-3,-1.648352E-2,-4.4283103E-2,-1.4488931E-1,6.1947905E-4,-6.232423E-2,-2.610554E-2,-1.5458293E-1,2.66211E-1,-1.1234035E-1,-5.7979576E-2,-1.6251698E-1,3.6780748E-1,2.937018E-1,-3.973535E-2,-2.3622323E-2,-9.336513E-2,2.7683446E-2,-1.792783E-1,-5.9618104E-2,-1.6964185E-1,-1.454281E-1,-8.1012726E-2],"split_indices":[0,0,0,0,0,0,0,4,3,3,3,2,2,4,0,3,6,5,4,2,2,2,2,0,2,2,6,6,0,5,0,4,0,0,5,5,4,0,0,0,0,0,6,3,2,2,6,5,4,2,6,4,5,4,3,2,5,0,5,0,4,0,0,0,0,0,0,0,0,0,0,0,0,0,0,0,0,0,0,0,0,0,0,0,0,0,0,0,0,0,0,0,0,0,0,0,0,0,0,0,0,0,0,0,0,0,0,0,0,0,0,0,0],"split_type":[0,0,0,0,0,0,0,0,0,0,0,0,0,0,0,0,0,0,0,0,0,0,0,0,0,0,0,0,0,0,0,0,0,0,0,0,0,0,0,0,0,0,0,0,0,0,0,0,0,0,0,0,0,0,0,0,0,0,0,0,0,0,0,0,0,0,0,0,0,0,0,0,0,0,0,0,0,0,0,0,0,0,0,0,0,0,0,0,0,0,0,0,0,0,0,0,0,0,0,0,0,0,0,0,0,0,0,0,0,0,0,0,0],"sum_hessian":[3.560885E4,2.5708293E4,9.900559E3,1.5342606E4,1.0365687E4,7.897102E3,2.0034565E3,9.209592E3,6.133015E3,5.3597974E3,5.0058896E3,6.3436357E3,1.5534666E3,1.1060691E3,8.9738745E2,8.591807E3,6.1778467E2,5.9731597E3,1.5985564E2,8.796188E0,5.351001E3,4.181546E3,8.243437E2,1.6749365E3,4.668699E3,9.420921E2,6.113744E2,9.822465E2,1.23822586E2,7.165425E2,1.8084497E2,7.8940234E3,6.977835E2,3.85779E1,5.792067E2,5.840191E3,1.3296867E2,9.82495E0,1.5003069E2,7.307065E0,1.4891232E0,9.972845E0,5.3410283E3,1.7261924E3,2.4553535E3,2.1274637E2,6.1159735E2,2.9089699E1,1.6458468E3,3.4559883E3,1.2127109E3,9.326758E2,9.416353E0,6.036623E2,7.712139E0,1.2005075E1,9.7024146E2,6.5721344E1,5.8101242E1,1.496376E0,7.150461E2,3.3344824E3,4.5595415E3,4.5898056E1,6.518855E2,2.4213829E1,1.4364073E1,4.9679855E1,5.2952686E2,4.75512E3,1.0850708E3,3.4189696E0,1.295497E2,2.6743803E0,7.1505694E0,1.3432475E2,1.5705935E1,1.7086942E3,3.632334E3,6.6171545E2,1.0644769E3,9.749635E2,1.4803901E3,5.7121024E0,2.0703426E2,5.6828046E2,4.3316883E1,1.503082E1,1.4058879E1,1.7621912E2,1.4696277E3,2.4015442E3,1.054444E3,2.5249723E1,1.1874612E3,6.613581E2,2.7131766E2,2.5381796E0,6.8781734E0,2.2268301E2,3.8097925E2,2.2956648E0,5.4164743E0,4.705934E0,7.2991414E0,8.204563E1,8.8819586E2,1.2686722E0,6.4452675E1,3.26838E1,2.5417442E1,6.764029E2,3.8643177E1],"tree_param":{"num_deleted":"0","num_feature":"7","num_nodes":"113","size_leaf_vector":"0"}},{"base_weights":[-5.003318E-2,-1.2755716E-1,2.527677E-2,-1.7957525E-1,-1.02885105E-1,-1.2319332E-2,7.992615E-2,1.577596E-1,-1.8672378E-1,-9.399288E-2,-1.8208261E-1,5.34886E-1,-1.425383E-2,7.2544225E-2,3.1278753E-1,-3.131867E-2,8.459319E-1,-5.011436E-1,-1.823897E-1,6.960464E-1,-9.472579E-2,4.3248948E-1,-1.881394E-1,-6.926958E-2,7.117096E-1,-3.8228486E-2,2.1793162E-2,6.2107824E-2,2.124183E-1,4.932775E-1,1.3469006E-1,1.1132902E0,-1.695569E-1,1.0763366E0,-4.883156E-1,1.2344203E0,-5.576063E-1,-2.2248517E-1,-1.4995514E-1,2.126268E-1,1.0685604E0,-1.21611744E-1,-7.623404E-2,9.50108E-1,-2.3840848E-1,-2.1066119E-1,-2.1764643E-2,-5.7501876E-1,5.708604E-1,7.939219E-1,-4.5984396E-1,-9.862092E-2,-5.6933598E-3,3.6652985E-1,1.6559375E-2,5.22457E-1,5.9780475E-2,2.4626637E-1,-9.884907E-2,7.9190695E-1,3.4864506E-1,-1.5278393E-1,4.7424522E-1,-4.3799636E-1,1.5656061E0,-5.3937674E-1,3.5360157E-2,1.1875604E0,-3.7504718E-1,-1.5118825E-1,-6.3126385E-1,-3.0086073E-1,-1.6722299E-1,-1.4033653E-1,-4.3771246E-1,9.0195924E-1,-4.6974364E-1,-1.3239855E-1,8.1303276E-2,-1.3559766E-1,-5.4568876E-2,6.6587344E-2,1.1433928E0,-5.687132E-1,5.2882284E-1,-2.1961388E-1,2.6279956E-1,-4.298079E-1,8.387847E-2,8.1910414E-1,-1.3079395E-2,1.009277E0,3.6802265E-1,-8.583209E-2,-2.7492884E-1,3.9467323E-1,-1.0149638E-2,-9.538511E-2,5.176986E-1,1.3004718E-2,5.416317E-1,-1.3214968E-1,7.558912E-1,9.078907E-1,5.8530103E-2,6.714149E-1,2.2358477E-1,4.4889793E-1,-2.0485009E-1,-2.6055228E-2,8.876846E-1,-2.529332E-1,4.2302868E-1,3.4702274E-1,-2.9607412E-1,5.947804E-1,-3.0537933E-1],"categories":[],"categories_nodes":[],"categories_segments":[],"categories_sizes":[],"default_left":[true,true,true,true,true,true,true,true,true,true,true,true,true,true,true,true,true,true,true,true,true,true,true,true,true,true,true,true,true,true,true,true,true,true,false,false,true,true,true,true,false,true,true,true,true,true,true,false,true,true,false,true,true,true,true,true,true,true,true,true,true,true,true,false,false,false,false,false,false,false,false,false,false,false,false,false,false,false,false,false,false,false,false,false,false,false,false,false,false,false,false,false,false,false,false,false,false,false,false,false,false,false,false,false,false,false,false,false,false,false,false,false,false,false,false,false,false],"id":11,"left_children":[1,3,5,7,9,11,13,15,17,19,21,23,25,27,29,31,33,35,37,39,41,43,45,47,49,51,53,55,57,59,61,63,65,67,-1,-1,69,71,73,75,-1,77,79,81,83,85,87,-1,89,91,-1,93,95,97,99,101,103,105,107,109,111,113,115,-1,-1,-1,-1,-1,-1,-1,-1,-1,-1,-1,-1,-1,-1,-1,-1,-1,-1,-1,-1,-1,-1,-1,-1,-1,-1,-1,-1,-1,-1,-1,-1,-1,-1,-1,-1,-1,-1,-1,-1,-1,-1,-1,-1,-1,-1,-1,-1,-1,-1,-1,-1,-1,-1],"loss_changes":[1.902978E2,2.0594238E1,3.397167E1,1.2486221E1,7.6565933E0,1.0377495E1,1.1561077E1,1.4045114E1,6.8025208E0,5.7394867E0,4.17173E0,3.7387E0,8.437811E0,9.523617E0,6.57983E0,1.3714233E1,7.6751537E0,7.3729267E0,6.4582825E0,1.4297566E0,4.8581696E0,4.0558996E0,4.0753746E0,3.1547444E0,2.9468288E0,1.1520396E1,7.030881E0,6.4837494E0,4.7990685E0,4.143034E0,1.0365341E1,7.2417717E0,5.864702E0,3.6972485E0,0E0,0E0,1.9028797E0,9.609032E0,7.584858E0,2.8945553E0,0E0,8.739613E0,7.456463E0,1.0211091E0,1.7203846E0,4.1222916E0,5.6803117E0,0E0,6.420375E-1,1.9595318E0,0E0,4.6050205E0,6.804534E0,4.1188436E0,7.1654825E0,4.754196E0,6.364086E0,3.7941704E0,2.7141054E0,2.5769272E0,3.271408E0,4.2464037E0,4.747485E0,0E0,0E0,0E0,0E0,0E0,0E0,0E0,0E0,0E0,0E0,0E0,0E0,0E0,0E0,0E0,0E0,0E0,0E0,0E0,0E0,0E0,0E0,0E0,0E0,0E0,0E0,0E0,0E0,0E0,0E0,0E0,0E0,0E0,0E0,0E0,0E0,0E0,0E0,0E0,0E0,0E0,0E0,0E0,0E0,0E0,0E0,0E0,0E0,0E0,0E0,0E0,0E0,0E0,0E0],"parents":[2147483647,0,0,1,1,2,2,3,3,4,4,5,5,6,6,7,7,8,8,9,9,10,10,11,11,12,12,13,13,14,14,15,15,16,16,17,17,18,18,19,19,20,20,21,21,22,22,23,23,24,24,25,25,26,26,27,27,28,28,29,29,30,30,31,31,32,32,33,33,36,36,37,37,38,38,39,39,41,41,42,42,43,43,44,44,45,45,46,46,48,48,49,49,51,51,52,52,53,53,54,54,55,55,56,56,57,57,58,58,59,59,60,60,61,61,62,62],"right_children":[2,4,6,8,10,12,14,16,18,20,22,24,26,28,30,32,34,36,38,40,42,44,46,48,50,52,54,56,58,60,62,64,66,68,-1,-1,70,72,74,76,-1,78,80,82,84,86,88,-1,90,92,-1,94,96,98,100,102,104,106,108,110,112,114,116,-1,-1,-1,-1,-1,-1,-1,-1,-1,-1,-1,-1,-1,-1,-1,-1,-1,-1,-1,-1,-1,-1,-1,-1,-1,-1,-1,-1,-1,-1,-1,-1,-1,-1,-1,-1,-1,-1,-1,-1,-1,-1,-1,-1,-1,-1,-1,-1,-1,-1,-1,-1,-1,-1],"split_conditions":[6.383953E1,4.488063E1,8.50845E1,2.8833028E-8,9.9994995E1,9.3742784E-11,1.4122672E2,3.2731827E1,1.9504438E1,4.4904915E1,1.1977839E1,2.298262E1,7.505676E1,1.3745078E2,1.1949165E2,-1.907958E0,5.0446465E1,8.721743E0,1.9193203E1,2.0445396E1,5.3360992E1,2.349422E1,6.1676056E1,3.3767988E-12,1.2507684E2,7.987342E0,7.1031647E0,-1.8747607E2,9.999965E1,1.2307403E-5,1.3715002E1,3.6884693E1,2.4240822E1,1.5384584E1,-1.4649469E-1,3.703261E-1,1.5699039E1,2.1959084E1,4.7326805E1,1.8424828E1,3.205681E-1,5.4785812E1,-1.5438736E1,1.984326E1,2.7571281E1,4.0730614E1,9.006046E0,-1.7250563E-1,2.075042E1,7.415196E1,-1.3795319E-1,2.4981323E1,8.855848E0,5.2167206E0,1.1903383E2,-2.1443243E2,7.767942E-11,1.3867442E2,7.215991E0,3.1258698E1,5.4368067E0,2.9494549E1,9.8634964E1,-1.3139892E-1,4.6968186E-1,-1.6181302E-1,1.0608047E-2,3.5626814E-1,-1.1251416E-1,-4.535648E-2,-1.8937917E-1,-9.0258226E-2,-5.01669E-2,-4.210096E-2,-1.3131374E-1,2.7058777E-1,-1.409231E-1,-3.9719567E-2,2.4390984E-2,-4.06793E-2,-1.6370663E-2,1.9976204E-2,3.4301785E-1,-1.7061396E-1,1.5864685E-1,-6.5884165E-2,7.883987E-2,-1.2894237E-1,2.5163542E-2,2.4573125E-1,-3.9238185E-3,3.027831E-1,1.104068E-1,-2.5749628E-2,-8.247866E-2,1.18401974E-1,-3.0448916E-3,-2.8615534E-2,1.5530959E-1,3.9014157E-3,1.6248952E-1,-3.9644904E-2,2.2676738E-1,2.723672E-1,1.7559031E-2,2.0142448E-1,6.707543E-2,1.3466938E-1,-6.145503E-2,-7.816569E-3,2.663054E-1,-7.587996E-2,1.2690862E-1,1.0410683E-1,-8.882224E-2,1.7843412E-1,-9.16138E-2],"split_indices":[0,0,0,6,6,6,2,4,0,0,3,2,0,0,0,2,2,3,4,3,0,4,0,6,2,6,3,2,6,6,3,0,4,3,0,0,0,3,2,3,0,2,2,4,4,3,4,0,3,0,0,3,3,3,2,2,6,0,4,4,3,4,6,0,0,0,0,0,0,0,0,0,0,0,0,0,0,0,0,0,0,0,0,0,0,0,0,0,0,0,0,0,0,0,0,0,0,0,0,0,0,0,0,0,0,0,0,0,0,0,0,0,0,0,0,0,0],"split_type":[0,0,0,0,0,0,0,0,0,0,0,0,0,0,0,0,0,0,0,0,0,0,0,0,0,0,0,0,0,0,0,0,0,0,0,0,0,0,0,0,0,0,0,0,0,0,0,0,0,0,0,0,0,0,0,0,0,0,0,0,0,0,0,0,0,0,0,0,0,0,0,0,0,0,0,0,0,0,0,0,0,0,0,0,0,0,0,0,0,0,0,0,0,0,0,0,0,0,0,0,0,0,0,0,0,0,0,0,0,0,0,0,0,0,0,0,0],"sum_hessian":[3.2593027E4,1.6060093E4,1.6532936E4,5.164685E3,1.0895408E4,9.795136E3,6.7378E3,1.0673738E2,5.0579478E3,9.797536E3,1.0978716E3,3.353557E1,9.7616E3,6.5320396E3,2.0576033E2,8.44805E1,2.2256887E1,6.7214E1,4.9907334E3,8.201224E0,9.789335E3,1.0027141E1,1.0878445E3,7.7305965E0,2.5804974E1,5.8624536E3,3.8991462E3,6.0798486E3,4.521906E2,1.0131479E2,1.0444553E2,8.343459E0,7.613704E1,1.9144258E1,3.1126292E0,1.4604288E0,6.575357E1,2.2291758E3,2.7615579E3,4.252913E0,3.948311E0,3.9869524E3,5.802383E3,5.4252324E0,4.6019077E0,9.579083E2,1.2993616E2,4.375416E0,3.3551805E0,2.4414082E1,1.3908917E0,2.0518086E3,3.810645E3,5.727913E1,3.8418672E3,2.9458601E1,6.05039E3,4.0802924E2,4.416138E1,3.1597868E1,6.971692E1,5.685827E1,4.758727E1,1.8906941E0,6.452765E0,2.656401E1,4.9573025E1,1.7950438E1,1.1938212E0,1.0556863E1,5.519671E1,9.19976E2,1.3091998E3,2.6736748E3,8.788294E1,1.955579E0,2.2973342E0,3.786037E3,2.009153E2,1.5500128E3,4.2523696E3,1.2151568E0,4.210076E0,3.3978348E0,1.2040732E0,9.4065753E2,1.7250801E1,2.6091204E1,1.03844955E2,2.0717294E0,1.2834511E0,1.5305254E1,9.108828E0,1.9144287E3,1.3737997E2,4.098355E1,3.7696614E3,1.4214369E1,4.3064762E1,3.817051E3,2.4816065E1,7.857667E0,2.1600935E1,7.8395557E0,6.042551E3,1.9217154E1,3.8881207E2,6.6359735E0,3.752541E1,3.3883731E0,2.8209494E1,7.407587E0,6.2309334E1,1.2351951E1,4.450632E1,4.142048E1,6.1667886E0],"tree_param":{"num_deleted":"0","num_feature":"7","num_nodes":"117","size_leaf_vector":"0"}},{"base_weights":[-3.808469E-2,-1.2468386E-1,2.0228406E-2,-1.4660132E-1,-7.306489E-2,-9.594258E-3,1.0685344E-1,-1.7869943E-1,-1.08167075E-1,-7.7052765E-2,5.3626424E-1,-3.917538E-2,6.5460103E-3,6.339695E-2,1.3785E-1,-2.3716871E-1,-1.4669444E-1,-9.4524056E-2,-2.1991849E-1,-3.9842088E-2,-1.3296635E-1,9.851995E-1,1.2338562E-1,-4.6249624E-2,1.344982E-1,3.1395763E-1,4.575554E-3,6.019506E-1,5.9029896E-2,1.0503697E-1,1.9040966E-1,-6.871941E-2,-2.6715523E-1,-1.2682435E-1,-2.6943174E-1,-1.0645775E-1,4.298134E-2,-2.289069E-1,1.1674266E0,-2.8098466E-2,-2.2780043E-1,-1.4880602E-1,6.846638E-2,1.1570903E0,-3.5193503E-1,-3.9349833E-1,4.6038926E-1,-3.905183E-2,-2.594109E-1,-4.0469557E-1,2.0528734E-1,4.6727248E-2,5.924103E-1,-8.384897E-2,1.0242491E-2,4.2731595E-1,8.0416995E-1,-9.6451305E-2,7.330122E-2,-6.0996175E-1,1.10539295E-1,4.2637542E-1,1.177467E-1,9.358644E-2,-1.6032454E-1,6.071384E-1,-2.696002E-1,8.7636515E-2,-1.4072423E-1,-3.0415392E-1,2.1599853E-1,-1.862196E-1,-8.837742E-2,6.557351E-2,-4.661775E-1,-3.0101353E-1,-4.6566136E-2,-3.3312075E-2,3.4280184E-1,-2.692985E-1,6.4850485E-1,-1.5788059E-1,2.3781891E-1,-1.809506E-2,5.8536625E-1,1.0698914E-1,1.2709476E0,1.2415307E-1,-5.323112E-1,7.578552E-1,-2.2603758E-1,-2.695663E-1,-3.4667514E-2,-1.22868195E-1,-4.128234E-1,-5.4607344E-1,1.469813E-1,1.2803993E-1,7.639049E-1,4.6910158E-1,-3.709988E-1,7.420249E-1,-3.6731848E-1,2.5385448E-1,-1.0673971E-1,-1.1545732E-3,8.9012995E-2,6.165088E-1,-2.8288448E-1,-2.1690324E-1,1.2701164E-1,1.6163494E-1,3.8181886E-2,3.1012801E-2,-6.7904335E-1,1.1496974E-1,-7.218798E-1,-6.321477E-1,4.537398E-1,1.3180466E-1,-6.0707724E-1],"categories":[],"categories_nodes":[],"categories_segments":[],"categories_sizes":[],"default_left":[true,true,true,true,true,true,true,true,true,true,true,true,true,true,true,true,true,true,true,true,true,true,true,true,true,true,true,true,true,true,true,true,true,true,true,true,true,true,false,true,true,true,true,true,false,true,true,true,true,true,true,true,true,true,true,true,false,true,true,true,true,true,true,false,false,false,false,false,false,false,false,false,false,false,false,false,false,false,false,false,false,false,false,false,false,false,false,false,false,false,false,false,false,false,false,false,false,false,false,false,false,false,false,false,false,false,false,false,false,false,false,false,false,false,false,false,false,false,false,false,false],"id":12,"left_children":[1,3,5,7,9,11,13,15,17,19,21,23,25,27,29,31,33,35,37,39,41,43,45,47,49,51,53,55,57,59,61,63,65,67,69,71,73,75,-1,77,79,81,83,85,-1,87,89,91,93,95,97,99,101,103,105,107,-1,109,111,113,115,117,119,-1,-1,-1,-1,-1,-1,-1,-1,-1,-1,-1,-1,-1,-1,-1,-1,-1,-1,-1,-1,-1,-1,-1,-1,-1,-1,-1,-1,-1,-1,-1,-1,-1,-1,-1,-1,-1,-1,-1,-1,-1,-1,-1,-1,-1,-1,-1,-1,-1,-1,-1,-1,-1,-1,-1,-1,-1,-1],"loss_changes":[1.6165668E2,1.456308E1,4.942356E1,1.1134644E1,9.375559E0,6.7954383E0,6.590988E0,9.181839E0,6.256233E0,7.936838E0,4.5313754E0,6.179174E0,5.5768194E0,4.766226E0,4.9105988E0,8.774086E0,7.7347946E0,6.028328E0,5.843693E0,5.0558186E0,4.8755093E0,3.1384392E0,2.6581097E0,7.3981028E0,7.598661E0,4.335574E0,4.586559E0,2.3247194E-1,4.5033712E0,7.0006638E0,1.8769108E1,3.9459038E0,3.3215637E0,8.190941E0,7.532028E0,4.8550873E0,3.410817E0,5.8387566E0,0E0,4.187623E0,5.0738606E0,4.9985943E0,5.0152597E0,1.1508293E0,0E0,5.080956E-1,2.0229716E0,4.712306E0,3.2492943E0,1.888752E0,7.4414554E0,5.644846E0,4.3835306E0,4.2886095E0,7.7217274E0,1.6373338E0,0E0,4.624607E0,5.753274E0,6.2378883E-1,6.5358906E0,7.76099E0,8.644937E0,0E0,0E0,0E0,0E0,0E0,0E0,0E0,0E0,0E0,0E0,0E0,0E0,0E0,0E0,0E0,0E0,0E0,0E0,0E0,0E0,0E0,0E0,0E0,0E0,0E0,0E0,0E0,0E0,0E0,0E0,0E0,0E0,0E0,0E0,0E0,0E0,0E0,0E0,0E0,0E0,0E0,0E0,0E0,0E0,0E0,0E0,0E0,0E0,0E0,0E0,0E0,0E0,0E0,0E0,0E0,0E0,0E0,0E0],"parents":[2147483647,0,0,1,1,2,2,3,3,4,4,5,5,6,6,7,7,8,8,9,9,10,10,11,11,12,12,13,13,14,14,15,15,16,16,17,17,18,18,19,19,20,20,21,21,22,22,23,23,24,24,25,25,26,26,27,27,28,28,29,29,30,30,31,31,32,32,33,33,34,34,35,35,36,36,37,37,39,39,40,40,41,41,42,42,43,43,45,45,46,46,47,47,48,48,49,49,50,50,51,51,52,52,53,53,54,54,55,55,57,57,58,58,59,59,60,60,61,61,62,62],"right_children":[2,4,6,8,10,12,14,16,18,20,22,24,26,28,30,32,34,36,38,40,42,44,46,48,50,52,54,56,58,60,62,64,66,68,70,72,74,76,-1,78,80,82,84,86,-1,88,90,92,94,96,98,100,